<?xml version="1.0"?>
<opencv_storage>
<cascade>
  <stageType>BOOST</stageType>
  <featureType>HAAR</featureType>
  <height>32</height>
  <width>16</width>
  <stageParams>
    <boostType>GAB</boostType>
    <minHitRate>9.9500000476837158e-01</minHitRate>
    <maxFalseAlarm>5.0000000000000000e-01</maxFalseAlarm>
    <weightTrimRate>9.4999999999999996e-01</weightTrimRate>
    <maxDepth>1</maxDepth>
    <maxWeakCount>100</maxWeakCount></stageParams>
  <featureParams>
    <maxCatCount>0</maxCatCount>
    <featSize>1</featSize>
    <mode>BASIC</mode></featureParams>
  <stageNum>20</stageNum>
  <stages>
    <!-- stage 0 -->
    <_>
      <maxWeakCount>8</maxWeakCount>
      <stageThreshold>-1.3598293066024780e+00</stageThreshold>
      <weakClassifiers>
        <_>
          <internalNodes>
            0 -1 143 -8.7987430393695831e-02</internalNodes>
          <leafValues>
            7.4672490358352661e-01 -7.0824217796325684e-01</leafValues></_>
        <_>
          <internalNodes>
            0 -1 42 7.3600709438323975e-02</internalNodes>
          <leafValues>
            -3.9596453309059143e-01 5.7965791225433350e-01</leafValues></_>
        <_>
          <internalNodes>
            0 -1 198 -3.5185746848583221e-02</internalNodes>
          <leafValues>
            7.3389899730682373e-01 -2.4155631661415100e-01</leafValues></_>
        <_>
          <internalNodes>
            0 -1 273 -8.4327696822583675e-04</internalNodes>
          <leafValues>
            -8.0888181924819946e-01 2.7513659000396729e-01</leafValues></_>
        <_>
          <internalNodes>
            0 -1 308 7.0589582901448011e-04</internalNodes>
          <leafValues>
            2.3985633254051208e-01 -8.1608158349990845e-01</leafValues></_>
        <_>
          <internalNodes>
            0 -1 287 -3.3752530813217163e-02</internalNodes>
          <leafValues>
            6.5605270862579346e-01 -2.5530028343200684e-01</leafValues></_>
        <_>
          <internalNodes>
            0 -1 132 -4.2058154940605164e-02</internalNodes>
          <leafValues>
            5.5842566490173340e-01 -2.9060700535774231e-01</leafValues></_>
        <_>
          <internalNodes>
            0 -1 310 4.6446640044450760e-04</internalNodes>
          <leafValues>
            2.5183382630348206e-01 -8.3082979917526245e-01</leafValues></_></weakClassifiers></_>
    <!-- stage 1 -->
    <_>
      <maxWeakCount>9</maxWeakCount>
      <stageThreshold>-1.3512589931488037e+00</stageThreshold>
      <weakClassifiers>
        <_>
          <internalNodes>
            0 -1 230 3.7728611379861832e-02</internalNodes>
          <leafValues>
            -7.4696969985961914e-01 6.6428571939468384e-01</leafValues></_>
        <_>
          <internalNodes>
            0 -1 145 1.1493651196360588e-02</internalNodes>
          <leafValues>
            1.6720980405807495e-01 -8.2329487800598145e-01</leafValues></_>
        <_>
          <internalNodes>
            0 -1 158 -3.3329434692859650e-02</internalNodes>
          <leafValues>
            7.7976268529891968e-01 -2.7661105990409851e-01</leafValues></_>
        <_>
          <internalNodes>
            0 -1 229 -3.8907192647457123e-02</internalNodes>
          <leafValues>
            7.5874024629592896e-01 -1.8957974016666412e-01</leafValues></_>
        <_>
          <internalNodes>
            0 -1 296 -4.6569895930588245e-03</internalNodes>
          <leafValues>
            4.8368364572525024e-01 -3.4972116351127625e-01</leafValues></_>
        <_>
          <internalNodes>
            0 -1 301 8.4567331941798329e-04</internalNodes>
          <leafValues>
            -2.5249183177947998e-01 5.9490841627120972e-01</leafValues></_>
        <_>
          <internalNodes>
            0 -1 64 -9.5464572310447693e-02</internalNodes>
          <leafValues>
            7.9968512058258057e-01 -1.3031311333179474e-01</leafValues></_>
        <_>
          <internalNodes>
            0 -1 5 8.3389408886432648e-02</internalNodes>
          <leafValues>
            -2.1476370096206665e-01 6.8515223264694214e-01</leafValues></_>
        <_>
          <internalNodes>
            0 -1 112 -3.7632945924997330e-02</internalNodes>
          <leafValues>
            7.6097375154495239e-01 -1.9142328202724457e-01</leafValues></_></weakClassifiers></_>
    <!-- stage 2 -->
    <_>
      <maxWeakCount>9</maxWeakCount>
      <stageThreshold>-1.4022874832153320e+00</stageThreshold>
      <weakClassifiers>
        <_>
          <internalNodes>
            0 -1 200 4.2553700506687164e-02</internalNodes>
          <leafValues>
            -7.3447203636169434e-01 4.6794870495796204e-01</leafValues></_>
        <_>
          <internalNodes>
            0 -1 11 4.9009457230567932e-02</internalNodes>
          <leafValues>
            -3.7519690394401550e-01 6.1175692081451416e-01</leafValues></_>
        <_>
          <internalNodes>
            0 -1 202 3.5326555371284485e-02</internalNodes>
          <leafValues>
            -2.8021085262298584e-01 5.8687353134155273e-01</leafValues></_>
        <_>
          <internalNodes>
            0 -1 204 8.8030854240059853e-03</internalNodes>
          <leafValues>
            -2.7691829204559326e-01 5.4765808582305908e-01</leafValues></_>
        <_>
          <internalNodes>
            0 -1 57 -1.0359006701037288e-03</internalNodes>
          <leafValues>
            3.7809821963310242e-01 -4.1180726885795593e-01</leafValues></_>
        <_>
          <internalNodes>
            0 -1 106 -1.3371158391237259e-02</internalNodes>
          <leafValues>
            5.1615083217620850e-01 -2.5877976417541504e-01</leafValues></_>
        <_>
          <internalNodes>
            0 -1 32 1.2627631425857544e-02</internalNodes>
          <leafValues>
            -1.8853285908699036e-01 6.1656194925308228e-01</leafValues></_>
        <_>
          <internalNodes>
            0 -1 84 -1.2527968734502792e-02</internalNodes>
          <leafValues>
            5.6655251979827881e-01 -2.7106118202209473e-01</leafValues></_>
        <_>
          <internalNodes>
            0 -1 316 -1.7295444384217262e-02</internalNodes>
          <leafValues>
            6.1746752262115479e-01 -1.8533380329608917e-01</leafValues></_></weakClassifiers></_>
    <!-- stage 3 -->
    <_>
      <maxWeakCount>11</maxWeakCount>
      <stageThreshold>-1.6690595149993896e+00</stageThreshold>
      <weakClassifiers>
        <_>
          <internalNodes>
            0 -1 144 -1.1667107045650482e-01</internalNodes>
          <leafValues>
            6.9633507728576660e-01 -6.6217178106307983e-01</leafValues></_>
        <_>
          <internalNodes>
            0 -1 41 1.7183242365717888e-02</internalNodes>
          <leafValues>
            -3.1835860013961792e-01 5.1895612478256226e-01</leafValues></_>
        <_>
          <internalNodes>
            0 -1 303 -4.3789049959741533e-04</internalNodes>
          <leafValues>
            2.5837472081184387e-01 -4.0663865208625793e-01</leafValues></_>
        <_>
          <internalNodes>
            0 -1 91 -8.2535505294799805e-02</internalNodes>
          <leafValues>
            -8.5392081737518311e-01 1.4098368585109711e-01</leafValues></_>
        <_>
          <internalNodes>
            0 -1 92 3.2720342278480530e-02</internalNodes>
          <leafValues>
            2.0298370718955994e-01 -6.7332887649536133e-01</leafValues></_>
        <_>
          <internalNodes>
            0 -1 286 1.8186047673225403e-03</internalNodes>
          <leafValues>
            1.0660015791654587e-01 -9.3239516019821167e-01</leafValues></_>
        <_>
          <internalNodes>
            0 -1 155 -1.1051780544221401e-02</internalNodes>
          <leafValues>
            3.4786006808280945e-01 -3.0702570080757141e-01</leafValues></_>
        <_>
          <internalNodes>
            0 -1 284 1.6023414209485054e-03</internalNodes>
          <leafValues>
            1.4295256137847900e-01 -7.4139440059661865e-01</leafValues></_>
        <_>
          <internalNodes>
            0 -1 311 -4.4022272049915045e-05</internalNodes>
          <leafValues>
            2.8397095203399658e-01 -3.6707118153572083e-01</leafValues></_>
        <_>
          <internalNodes>
            0 -1 264 -4.0678482502698898e-02</internalNodes>
          <leafValues>
            7.0242184400558472e-01 -1.7028598487377167e-01</leafValues></_>
        <_>
          <internalNodes>
            0 -1 117 -1.3040951453149319e-03</internalNodes>
          <leafValues>
            -7.1853178739547729e-01 1.8027146160602570e-01</leafValues></_></weakClassifiers></_>
    <!-- stage 4 -->
    <_>
      <maxWeakCount>10</maxWeakCount>
      <stageThreshold>-1.4690598249435425e+00</stageThreshold>
      <weakClassifiers>
        <_>
          <internalNodes>
            0 -1 201 -5.6830547749996185e-02</internalNodes>
          <leafValues>
            4.7791165113449097e-01 -6.8023687601089478e-01</leafValues></_>
        <_>
          <internalNodes>
            0 -1 56 4.5401372015476227e-02</internalNodes>
          <leafValues>
            -2.9723489284515381e-01 6.0131007432937622e-01</leafValues></_>
        <_>
          <internalNodes>
            0 -1 78 -8.1841740757226944e-03</internalNodes>
          <leafValues>
            2.3210433125495911e-01 -4.4915851950645447e-01</leafValues></_>
        <_>
          <internalNodes>
            0 -1 275 -1.2682829052209854e-02</internalNodes>
          <leafValues>
            -9.5958620309829712e-01 1.2939316034317017e-01</leafValues></_>
        <_>
          <internalNodes>
            0 -1 281 5.7089962065219879e-03</internalNodes>
          <leafValues>
            9.7011126577854156e-02 -8.5378891229629517e-01</leafValues></_>
        <_>
          <internalNodes>
            0 -1 210 2.5950856506824493e-03</internalNodes>
          <leafValues>
            -2.1524471044540405e-01 4.9945977330207825e-01</leafValues></_>
        <_>
          <internalNodes>
            0 -1 199 6.7519932985305786e-02</internalNodes>
          <leafValues>
            -2.0236718654632568e-01 6.5809047222137451e-01</leafValues></_>
        <_>
          <internalNodes>
            0 -1 124 -5.9762064367532730e-02</internalNodes>
          <leafValues>
            -7.8349918127059937e-01 1.4918899536132812e-01</leafValues></_>
        <_>
          <internalNodes>
            0 -1 14 2.1940018981695175e-02</internalNodes>
          <leafValues>
            -1.9097304344177246e-01 5.3691816329956055e-01</leafValues></_>
        <_>
          <internalNodes>
            0 -1 75 -1.1284259147942066e-02</internalNodes>
          <leafValues>
            6.7057484388351440e-01 -1.2961262464523315e-01</leafValues></_></weakClassifiers></_>
    <!-- stage 5 -->
    <_>
      <maxWeakCount>12</maxWeakCount>
      <stageThreshold>-1.4216595888137817e+00</stageThreshold>
      <weakClassifiers>
        <_>
          <internalNodes>
            0 -1 226 3.5417400300502777e-02</internalNodes>
          <leafValues>
            -6.8356376886367798e-01 3.0201342701911926e-01</leafValues></_>
        <_>
          <internalNodes>
            0 -1 38 6.3579559326171875e-02</internalNodes>
          <leafValues>
            -3.0979719758033752e-01 5.0826108455657959e-01</leafValues></_>
        <_>
          <internalNodes>
            0 -1 116 1.0927020758390427e-01</internalNodes>
          <leafValues>
            1.2176102399826050e-01 -8.5094881057739258e-01</leafValues></_>
        <_>
          <internalNodes>
            0 -1 85 -7.9605641076341271e-05</internalNodes>
          <leafValues>
            2.5730735063552856e-01 -3.7642213702201843e-01</leafValues></_>
        <_>
          <internalNodes>
            0 -1 43 8.7205901741981506e-02</internalNodes>
          <leafValues>
            -1.9441694021224976e-01 4.7539842128753662e-01</leafValues></_>
        <_>
          <internalNodes>
            0 -1 36 -5.2059590816497803e-02</internalNodes>
          <leafValues>
            6.1484438180923462e-01 -2.0328290760517120e-01</leafValues></_>
        <_>
          <internalNodes>
            0 -1 110 -1.6668070107698441e-02</internalNodes>
          <leafValues>
            4.6414479613304138e-01 -2.0195949077606201e-01</leafValues></_>
        <_>
          <internalNodes>
            0 -1 82 1.0492608416825533e-03</internalNodes>
          <leafValues>
            -2.6576444506645203e-01 3.2751563191413879e-01</leafValues></_>
        <_>
          <internalNodes>
            0 -1 257 -8.9220982044935226e-03</internalNodes>
          <leafValues>
            -8.3364915847778320e-01 1.4074005186557770e-01</leafValues></_>
        <_>
          <internalNodes>
            0 -1 187 -1.5490910410881042e-01</internalNodes>
          <leafValues>
            8.6513364315032959e-01 -1.1725749820470810e-01</leafValues></_>
        <_>
          <internalNodes>
            0 -1 4 2.3895227350294590e-03</internalNodes>
          <leafValues>
            -2.9907876253128052e-01 3.2552832365036011e-01</leafValues></_>
        <_>
          <internalNodes>
            0 -1 190 -7.0171728730201721e-03</internalNodes>
          <leafValues>
            6.3403946161270142e-01 -1.6867735981941223e-01</leafValues></_></weakClassifiers></_>
    <!-- stage 6 -->
    <_>
      <maxWeakCount>13</maxWeakCount>
      <stageThreshold>-1.4835507869720459e+00</stageThreshold>
      <weakClassifiers>
        <_>
          <internalNodes>
            0 -1 196 8.9991949498653412e-02</internalNodes>
          <leafValues>
            -6.6988849639892578e-01 3.9607843756675720e-01</leafValues></_>
        <_>
          <internalNodes>
            0 -1 313 -1.5131009742617607e-02</internalNodes>
          <leafValues>
            3.3743229508399963e-01 -3.2270529866218567e-01</leafValues></_>
        <_>
          <internalNodes>
            0 -1 244 3.6549614742398262e-03</internalNodes>
          <leafValues>
            9.9722489714622498e-02 -8.9418560266494751e-01</leafValues></_>
        <_>
          <internalNodes>
            0 -1 170 -1.4881823211908340e-02</internalNodes>
          <leafValues>
            3.7140908837318420e-01 -2.2610034048557281e-01</leafValues></_>
        <_>
          <internalNodes>
            0 -1 213 -9.9278835114091635e-04</internalNodes>
          <leafValues>
            -7.0578515529632568e-01 9.5139093697071075e-02</leafValues></_>
        <_>
          <internalNodes>
            0 -1 37 4.5794084668159485e-02</internalNodes>
          <leafValues>
            -1.7343018949031830e-01 4.9439269304275513e-01</leafValues></_>
        <_>
          <internalNodes>
            0 -1 255 -2.7425638400018215e-03</internalNodes>
          <leafValues>
            4.2746251821517944e-01 -2.8118544816970825e-01</leafValues></_>
        <_>
          <internalNodes>
            0 -1 248 -2.0350213162600994e-04</internalNodes>
          <leafValues>
            2.9006898403167725e-01 -2.7394771575927734e-01</leafValues></_>
        <_>
          <internalNodes>
            0 -1 113 2.3279894143342972e-02</internalNodes>
          <leafValues>
            -1.7251838743686676e-01 4.7637692093849182e-01</leafValues></_>
        <_>
          <internalNodes>
            0 -1 29 5.8309383690357208e-02</internalNodes>
          <leafValues>
            -1.3473030924797058e-01 5.2707350254058838e-01</leafValues></_>
        <_>
          <internalNodes>
            0 -1 20 -2.6278840377926826e-03</internalNodes>
          <leafValues>
            3.4323465824127197e-01 -2.2926998138427734e-01</leafValues></_>
        <_>
          <internalNodes>
            0 -1 241 4.2720180936157703e-03</internalNodes>
          <leafValues>
            8.5131570696830750e-02 -8.8139748573303223e-01</leafValues></_>
        <_>
          <internalNodes>
            0 -1 60 -7.0219926536083221e-02</internalNodes>
          <leafValues>
            -8.0822956562042236e-01 7.1336954832077026e-02</leafValues></_></weakClassifiers></_>
    <!-- stage 7 -->
    <_>
      <maxWeakCount>15</maxWeakCount>
      <stageThreshold>-1.5314245223999023e+00</stageThreshold>
      <weakClassifiers>
        <_>
          <internalNodes>
            0 -1 237 5.6033916771411896e-03</internalNodes>
          <leafValues>
            -6.6641277074813843e-01 2.6132404804229736e-01</leafValues></_>
        <_>
          <internalNodes>
            0 -1 74 3.8323588669300079e-02</internalNodes>
          <leafValues>
            -3.6595129966735840e-01 2.7055457234382629e-01</leafValues></_>
        <_>
          <internalNodes>
            0 -1 260 -3.3859612885862589e-03</internalNodes>
          <leafValues>
            4.1248336434364319e-01 -2.2999814152717590e-01</leafValues></_>
        <_>
          <internalNodes>
            0 -1 61 1.0740388929843903e-01</internalNodes>
          <leafValues>
            1.2996442615985870e-01 -7.0660960674285889e-01</leafValues></_>
        <_>
          <internalNodes>
            0 -1 165 5.6408876553177834e-03</internalNodes>
          <leafValues>
            -3.8219946622848511e-01 2.5169211626052856e-01</leafValues></_>
        <_>
          <internalNodes>
            0 -1 323 -9.7600687295198441e-03</internalNodes>
          <leafValues>
            5.7004481554031372e-01 -1.7846389114856720e-01</leafValues></_>
        <_>
          <internalNodes>
            0 -1 208 1.3677923707291484e-03</internalNodes>
          <leafValues>
            -2.3676741123199463e-01 3.6664804816246033e-01</leafValues></_>
        <_>
          <internalNodes>
            0 -1 79 -1.3386490754783154e-03</internalNodes>
          <leafValues>
            4.8001563549041748e-01 -1.6829606890678406e-01</leafValues></_>
        <_>
          <internalNodes>
            0 -1 66 -9.5118787139654160e-03</internalNodes>
          <leafValues>
            -4.3737843632698059e-01 1.8551637232303619e-01</leafValues></_>
        <_>
          <internalNodes>
            0 -1 207 -1.8322268733754754e-03</internalNodes>
          <leafValues>
            4.2988443374633789e-01 -1.9962032139301300e-01</leafValues></_>
        <_>
          <internalNodes>
            0 -1 95 -9.7475703805685043e-03</internalNodes>
          <leafValues>
            -7.3324990272521973e-01 1.1240728199481964e-01</leafValues></_>
        <_>
          <internalNodes>
            0 -1 168 6.6488529555499554e-03</internalNodes>
          <leafValues>
            -1.6603375971317291e-01 4.8308643698692322e-01</leafValues></_>
        <_>
          <internalNodes>
            0 -1 312 4.2758192867040634e-03</internalNodes>
          <leafValues>
            -1.0615141689777374e-01 6.4611625671386719e-01</leafValues></_>
        <_>
          <internalNodes>
            0 -1 223 3.7295624613761902e-02</internalNodes>
          <leafValues>
            -1.4782501757144928e-01 5.4464113712310791e-01</leafValues></_>
        <_>
          <internalNodes>
            0 -1 269 4.0270597673952579e-04</internalNodes>
          <leafValues>
            -3.3341109752655029e-01 2.4790544807910919e-01</leafValues></_></weakClassifiers></_>
    <!-- stage 8 -->
    <_>
      <maxWeakCount>17</maxWeakCount>
      <stageThreshold>-1.4120266437530518e+00</stageThreshold>
      <weakClassifiers>
        <_>
          <internalNodes>
            0 -1 205 3.2467827200889587e-02</internalNodes>
          <leafValues>
            -6.4840179681777954e-01 1.8181818723678589e-01</leafValues></_>
        <_>
          <internalNodes>
            0 -1 63 4.9164686352014542e-03</internalNodes>
          <leafValues>
            -3.2048681378364563e-01 3.2841867208480835e-01</leafValues></_>
        <_>
          <internalNodes>
            0 -1 88 -3.5492241382598877e-02</internalNodes>
          <leafValues>
            7.2385591268539429e-01 -1.0949762910604477e-01</leafValues></_>
        <_>
          <internalNodes>
            0 -1 274 -1.1729741469025612e-02</internalNodes>
          <leafValues>
            -8.4791129827499390e-01 9.6076592803001404e-02</leafValues></_>
        <_>
          <internalNodes>
            0 -1 282 -1.5398357936646789e-04</internalNodes>
          <leafValues>
            2.6543110609054565e-01 -3.5346040129661560e-01</leafValues></_>
        <_>
          <internalNodes>
            0 -1 242 -1.8432054203003645e-03</internalNodes>
          <leafValues>
            -9.2134940624237061e-01 5.8771971613168716e-02</leafValues></_>
        <_>
          <internalNodes>
            0 -1 251 3.1408838927745819e-02</internalNodes>
          <leafValues>
            -1.4507734775543213e-01 5.1285213232040405e-01</leafValues></_>
        <_>
          <internalNodes>
            0 -1 51 -2.6337704621255398e-03</internalNodes>
          <leafValues>
            2.9204717278480530e-01 -2.6431024074554443e-01</leafValues></_>
        <_>
          <internalNodes>
            0 -1 249 3.3144862391054630e-03</internalNodes>
          <leafValues>
            -1.3161246478557587e-01 5.8003723621368408e-01</leafValues></_>
        <_>
          <internalNodes>
            0 -1 8 -1.5599785838276148e-03</internalNodes>
          <leafValues>
            -6.6761809587478638e-01 1.5261967480182648e-01</leafValues></_>
        <_>
          <internalNodes>
            0 -1 247 -5.0003044307231903e-02</internalNodes>
          <leafValues>
            3.2538604736328125e-01 -2.5278216600418091e-01</leafValues></_>
        <_>
          <internalNodes>
            0 -1 2 -4.4367827475070953e-02</internalNodes>
          <leafValues>
            5.7285654544830322e-01 -1.2771983444690704e-01</leafValues></_>
        <_>
          <internalNodes>
            0 -1 136 1.3813909143209457e-02</internalNodes>
          <leafValues>
            -1.4200080931186676e-01 5.8888179063796997e-01</leafValues></_>
        <_>
          <internalNodes>
            0 -1 46 -1.7833928577601910e-03</internalNodes>
          <leafValues>
            4.1666662693023682e-01 -2.0214991271495819e-01</leafValues></_>
        <_>
          <internalNodes>
            0 -1 45 1.3738421723246574e-02</internalNodes>
          <leafValues>
            -1.8342560529708862e-01 4.1726011037826538e-01</leafValues></_>
        <_>
          <internalNodes>
            0 -1 294 -9.3024447560310364e-03</internalNodes>
          <leafValues>
            -8.8106065988540649e-01 9.8891966044902802e-02</leafValues></_>
        <_>
          <internalNodes>
            0 -1 101 -4.3170079588890076e-03</internalNodes>
          <leafValues>
            4.5616021752357483e-01 -1.7516985535621643e-01</leafValues></_></weakClassifiers></_>
    <!-- stage 9 -->
    <_>
      <maxWeakCount>15</maxWeakCount>
      <stageThreshold>-1.3188617229461670e+00</stageThreshold>
      <weakClassifiers>
        <_>
          <internalNodes>
            0 -1 71 6.8646803498268127e-02</internalNodes>
          <leafValues>
            -6.1829876899719238e-01 3.2338309288024902e-01</leafValues></_>
        <_>
          <internalNodes>
            0 -1 188 -7.8221410512924194e-02</internalNodes>
          <leafValues>
            4.5113921165466309e-01 -2.6312354207038879e-01</leafValues></_>
        <_>
          <internalNodes>
            0 -1 55 4.7599095851182938e-03</internalNodes>
          <leafValues>
            -1.7587791383266449e-01 4.4345113635063171e-01</leafValues></_>
        <_>
          <internalNodes>
            0 -1 242 2.0204272586852312e-03</internalNodes>
          <leafValues>
            9.3705527484416962e-02 -8.3618289232254028e-01</leafValues></_>
        <_>
          <internalNodes>
            0 -1 227 3.2385452650487423e-03</internalNodes>
          <leafValues>
            -1.7098671197891235e-01 4.0071770548820496e-01</leafValues></_>
        <_>
          <internalNodes>
            0 -1 191 1.1778732296079397e-03</internalNodes>
          <leafValues>
            -2.0506633818149567e-01 4.0628254413604736e-01</leafValues></_>
        <_>
          <internalNodes>
            0 -1 16 8.5228830575942993e-03</internalNodes>
          <leafValues>
            -1.6987276077270508e-01 4.3983429670333862e-01</leafValues></_>
        <_>
          <internalNodes>
            0 -1 149 -1.5568672679364681e-03</internalNodes>
          <leafValues>
            4.5861965417861938e-01 -1.7726069688796997e-01</leafValues></_>
        <_>
          <internalNodes>
            0 -1 278 -6.7987111397087574e-03</internalNodes>
          <leafValues>
            -9.2322599887847900e-01 8.4614783525466919e-02</leafValues></_>
        <_>
          <internalNodes>
            0 -1 152 -9.3155866488814354e-03</internalNodes>
          <leafValues>
            -8.9942973852157593e-01 6.4901918172836304e-02</leafValues></_>
        <_>
          <internalNodes>
            0 -1 195 -3.1463619321584702e-02</internalNodes>
          <leafValues>
            3.0907243490219116e-01 -2.1819174289703369e-01</leafValues></_>
        <_>
          <internalNodes>
            0 -1 307 -5.5957534350454807e-03</internalNodes>
          <leafValues>
            3.9166921377182007e-01 -1.7897447943687439e-01</leafValues></_>
        <_>
          <internalNodes>
            0 -1 299 5.7706218212842941e-03</internalNodes>
          <leafValues>
            -2.0705814659595490e-01 3.4259098768234253e-01</leafValues></_>
        <_>
          <internalNodes>
            0 -1 54 5.6316349655389786e-03</internalNodes>
          <leafValues>
            -1.4380262792110443e-01 5.2276986837387085e-01</leafValues></_>
        <_>
          <internalNodes>
            0 -1 173 -1.4103208482265472e-01</internalNodes>
          <leafValues>
            6.4553725719451904e-01 -1.1048350483179092e-01</leafValues></_></weakClassifiers></_>
    <!-- stage 10 -->
    <_>
      <maxWeakCount>15</maxWeakCount>
      <stageThreshold>-1.1489362716674805e+00</stageThreshold>
      <weakClassifiers>
        <_>
          <internalNodes>
            0 -1 228 7.0604741573333740e-02</internalNodes>
          <leafValues>
            -6.5795725584030151e-01 9.1988131403923035e-02</leafValues></_>
        <_>
          <internalNodes>
            0 -1 174 4.7424487769603729e-02</internalNodes>
          <leafValues>
            -3.7009444832801819e-01 2.4049952626228333e-01</leafValues></_>
        <_>
          <internalNodes>
            0 -1 147 6.3285119831562042e-02</internalNodes>
          <leafValues>
            9.1548360884189606e-02 -7.7657663822174072e-01</leafValues></_>
        <_>
          <internalNodes>
            0 -1 123 -2.4034701287746429e-02</internalNodes>
          <leafValues>
            -4.9785533547401428e-01 1.7824694514274597e-01</leafValues></_>
        <_>
          <internalNodes>
            0 -1 159 1.7587266862392426e-02</internalNodes>
          <leafValues>
            -1.8795853853225708e-01 5.4090076684951782e-01</leafValues></_>
        <_>
          <internalNodes>
            0 -1 246 -3.4367956686764956e-05</internalNodes>
          <leafValues>
            2.4662886559963226e-01 -3.3150929212570190e-01</leafValues></_>
        <_>
          <internalNodes>
            0 -1 243 8.9408317580819130e-04</internalNodes>
          <leafValues>
            8.7972350418567657e-02 -7.6970797777175903e-01</leafValues></_>
        <_>
          <internalNodes>
            0 -1 203 -4.7351676039397717e-03</internalNodes>
          <leafValues>
            3.7390726804733276e-01 -2.1046371757984161e-01</leafValues></_>
        <_>
          <internalNodes>
            0 -1 157 6.2615405768156052e-03</internalNodes>
          <leafValues>
            1.4053954184055328e-01 -5.2683126926422119e-01</leafValues></_>
        <_>
          <internalNodes>
            0 -1 21 9.0469010174274445e-03</internalNodes>
          <leafValues>
            -1.6851690411567688e-01 4.3800199031829834e-01</leafValues></_>
        <_>
          <internalNodes>
            0 -1 314 4.9273530021309853e-04</internalNodes>
          <leafValues>
            1.4872612059116364e-01 -4.8853069543838501e-01</leafValues></_>
        <_>
          <internalNodes>
            0 -1 254 2.6066083461046219e-02</internalNodes>
          <leafValues>
            9.0215072035789490e-02 -7.0665544271469116e-01</leafValues></_>
        <_>
          <internalNodes>
            0 -1 15 1.0202671587467194e-01</internalNodes>
          <leafValues>
            -1.5603743493556976e-01 4.8572033643722534e-01</leafValues></_>
        <_>
          <internalNodes>
            0 -1 98 1.3749481178820133e-02</internalNodes>
          <leafValues>
            -1.2931860983371735e-01 5.3306943178176880e-01</leafValues></_>
        <_>
          <internalNodes>
            0 -1 31 4.5500244945287704e-02</internalNodes>
          <leafValues>
            -1.3428701460361481e-01 5.1376032829284668e-01</leafValues></_></weakClassifiers></_>
    <!-- stage 11 -->
    <_>
      <maxWeakCount>17</maxWeakCount>
      <stageThreshold>-1.3716659545898438e+00</stageThreshold>
      <weakClassifiers>
        <_>
          <internalNodes>
            0 -1 172 1.3683259487152100e-01</internalNodes>
          <leafValues>
            -6.6477733850479126e-01 5.7534247636795044e-02</leafValues></_>
        <_>
          <internalNodes>
            0 -1 27 -5.5966641753911972e-02</internalNodes>
          <leafValues>
            3.9730191230773926e-01 -2.5713831186294556e-01</leafValues></_>
        <_>
          <internalNodes>
            0 -1 245 5.2324513671919703e-04</internalNodes>
          <leafValues>
            1.0747565329074860e-01 -6.8866097927093506e-01</leafValues></_>
        <_>
          <internalNodes>
            0 -1 76 6.5010925754904747e-03</internalNodes>
          <leafValues>
            -1.8044131994247437e-01 3.3342975378036499e-01</leafValues></_>
        <_>
          <internalNodes>
            0 -1 103 -3.5192812792956829e-03</internalNodes>
          <leafValues>
            2.1802194416522980e-01 -3.0139312148094177e-01</leafValues></_>
        <_>
          <internalNodes>
            0 -1 23 -1.8799003213644028e-02</internalNodes>
          <leafValues>
            4.3496456742286682e-01 -1.6387477517127991e-01</leafValues></_>
        <_>
          <internalNodes>
            0 -1 308 8.4940285887569189e-04</internalNodes>
          <leafValues>
            7.6906569302082062e-02 -7.9135054349899292e-01</leafValues></_>
        <_>
          <internalNodes>
            0 -1 33 1.8295297399163246e-02</internalNodes>
          <leafValues>
            1.1109020560979843e-01 -6.0844212770462036e-01</leafValues></_>
        <_>
          <internalNodes>
            0 -1 265 -6.6350563429296017e-04</internalNodes>
          <leafValues>
            3.2118785381317139e-01 -2.1950167417526245e-01</leafValues></_>
        <_>
          <internalNodes>
            0 -1 122 3.6459133028984070e-02</internalNodes>
          <leafValues>
            -1.3711388409137726e-01 5.2540504932403564e-01</leafValues></_>
        <_>
          <internalNodes>
            0 -1 268 -3.4476534929126501e-03</internalNodes>
          <leafValues>
            3.0441766977310181e-01 -2.1611496806144714e-01</leafValues></_>
        <_>
          <internalNodes>
            0 -1 298 4.1316887363791466e-03</internalNodes>
          <leafValues>
            -1.3909918069839478e-01 4.8034197092056274e-01</leafValues></_>
        <_>
          <internalNodes>
            0 -1 58 2.2818528115749359e-02</internalNodes>
          <leafValues>
            -1.5627370774745941e-01 4.3575486540794373e-01</leafValues></_>
        <_>
          <internalNodes>
            0 -1 160 -1.2277044588699937e-03</internalNodes>
          <leafValues>
            -8.2593166828155518e-01 8.6202375590801239e-02</leafValues></_>
        <_>
          <internalNodes>
            0 -1 318 -5.6817848235368729e-03</internalNodes>
          <leafValues>
            3.5316237807273865e-01 -1.8881358206272125e-01</leafValues></_>
        <_>
          <internalNodes>
            0 -1 291 2.4553619325160980e-02</internalNodes>
          <leafValues>
            -1.3715562224388123e-01 5.9119981527328491e-01</leafValues></_>
        <_>
          <internalNodes>
            0 -1 304 -1.7286037327721715e-03</internalNodes>
          <leafValues>
            3.0514445900917053e-01 -2.3941381275653839e-01</leafValues></_></weakClassifiers></_>
    <!-- stage 12 -->
    <_>
      <maxWeakCount>23</maxWeakCount>
      <stageThreshold>-1.6364235877990723e+00</stageThreshold>
      <weakClassifiers>
        <_>
          <internalNodes>
            0 -1 34 1.7313392460346222e-01</internalNodes>
          <leafValues>
            -6.5224766731262207e-01 -7.3634207248687744e-02</leafValues></_>
        <_>
          <internalNodes>
            0 -1 214 8.7535614147782326e-03</internalNodes>
          <leafValues>
            -3.1977403163909912e-01 2.4236747622489929e-01</leafValues></_>
        <_>
          <internalNodes>
            0 -1 272 1.5756873181089759e-03</internalNodes>
          <leafValues>
            -3.1625825166702271e-01 2.4861897528171539e-01</leafValues></_>
        <_>
          <internalNodes>
            0 -1 179 -3.0522134620696306e-03</internalNodes>
          <leafValues>
            -6.9869470596313477e-01 9.4122000038623810e-02</leafValues></_>
        <_>
          <internalNodes>
            0 -1 306 2.9455579351633787e-03</internalNodes>
          <leafValues>
            1.1410067975521088e-01 -7.1636575460433960e-01</leafValues></_>
        <_>
          <internalNodes>
            0 -1 245 -3.1749274057801813e-05</internalNodes>
          <leafValues>
            2.1726982295513153e-01 -2.9646509885787964e-01</leafValues></_>
        <_>
          <internalNodes>
            0 -1 73 -6.9660674780607224e-03</internalNodes>
          <leafValues>
            3.3711177110671997e-01 -2.0258381962776184e-01</leafValues></_>
        <_>
          <internalNodes>
            0 -1 183 2.2086827084422112e-04</internalNodes>
          <leafValues>
            -1.9889219105243683e-01 3.1804916262626648e-01</leafValues></_>
        <_>
          <internalNodes>
            0 -1 154 -1.6646198928356171e-02</internalNodes>
          <leafValues>
            5.2188783884048462e-01 -1.4633095264434814e-01</leafValues></_>
        <_>
          <internalNodes>
            0 -1 193 -5.0365058705210686e-03</internalNodes>
          <leafValues>
            -7.4461495876312256e-01 8.8187672197818756e-02</leafValues></_>
        <_>
          <internalNodes>
            0 -1 263 1.3978539500385523e-03</internalNodes>
          <leafValues>
            -1.5889006853103638e-01 3.9356362819671631e-01</leafValues></_>
        <_>
          <internalNodes>
            0 -1 271 1.7039931844919920e-03</internalNodes>
          <leafValues>
            6.7365862429141998e-02 -8.1000518798828125e-01</leafValues></_>
        <_>
          <internalNodes>
            0 -1 225 6.7012137733399868e-03</internalNodes>
          <leafValues>
            -1.7725807428359985e-01 3.3686354756355286e-01</leafValues></_>
        <_>
          <internalNodes>
            0 -1 302 -2.7374306228011847e-04</internalNodes>
          <leafValues>
            2.1648664772510529e-01 -2.9003694653511047e-01</leafValues></_>
        <_>
          <internalNodes>
            0 -1 220 1.8124661874026060e-03</internalNodes>
          <leafValues>
            7.7014274895191193e-02 -8.0441570281982422e-01</leafValues></_>
        <_>
          <internalNodes>
            0 -1 167 -5.6544039398431778e-03</internalNodes>
          <leafValues>
            4.0480101108551025e-01 -1.6481541097164154e-01</leafValues></_>
        <_>
          <internalNodes>
            0 -1 52 -1.2562891934067011e-03</internalNodes>
          <leafValues>
            5.5226427316665649e-01 -1.0701387375593185e-01</leafValues></_>
        <_>
          <internalNodes>
            0 -1 289 -5.4851910099387169e-03</internalNodes>
          <leafValues>
            -7.4064213037490845e-01 9.4103559851646423e-02</leafValues></_>
        <_>
          <internalNodes>
            0 -1 100 -9.6557065844535828e-03</internalNodes>
          <leafValues>
            3.3256763219833374e-01 -2.0173965394496918e-01</leafValues></_>
        <_>
          <internalNodes>
            0 -1 47 -7.7489495743066072e-04</internalNodes>
          <leafValues>
            3.2775557041168213e-01 -2.3763753473758698e-01</leafValues></_>
        <_>
          <internalNodes>
            0 -1 22 2.8903242200613022e-03</internalNodes>
          <leafValues>
            -1.4812560379505157e-01 4.4094669818878174e-01</leafValues></_>
        <_>
          <internalNodes>
            0 -1 125 4.5006148517131805e-02</internalNodes>
          <leafValues>
            1.1077246069908142e-01 -6.6206926107406616e-01</leafValues></_>
        <_>
          <internalNodes>
            0 -1 151 6.9685105700045824e-04</internalNodes>
          <leafValues>
            -2.0908614993095398e-01 3.2344341278076172e-01</leafValues></_></weakClassifiers></_>
    <!-- stage 13 -->
    <_>
      <maxWeakCount>18</maxWeakCount>
      <stageThreshold>-1.3388516902923584e+00</stageThreshold>
      <weakClassifiers>
        <_>
          <internalNodes>
            0 -1 138 -9.1419056057929993e-02</internalNodes>
          <leafValues>
            -1.3733075559139252e-01 -6.7313021421432495e-01</leafValues></_>
        <_>
          <internalNodes>
            0 -1 279 -4.0717728435993195e-02</internalNodes>
          <leafValues>
            3.0435886979103088e-01 -2.6509484648704529e-01</leafValues></_>
        <_>
          <internalNodes>
            0 -1 295 1.0200985707342625e-03</internalNodes>
          <leafValues>
            -2.4997928738594055e-01 3.0449080467224121e-01</leafValues></_>
        <_>
          <internalNodes>
            0 -1 96 -2.6628108695149422e-02</internalNodes>
          <leafValues>
            -7.2431534528732300e-01 9.0118303894996643e-02</leafValues></_>
        <_>
          <internalNodes>
            0 -1 118 1.8576049478724599e-03</internalNodes>
          <leafValues>
            8.8409423828125000e-02 -8.4322077035903931e-01</leafValues></_>
        <_>
          <internalNodes>
            0 -1 115 -5.6459172628819942e-04</internalNodes>
          <leafValues>
            -3.7131610512733459e-01 1.5040300786495209e-01</leafValues></_>
        <_>
          <internalNodes>
            0 -1 192 -8.8539849966764450e-03</internalNodes>
          <leafValues>
            -8.5053825378417969e-01 4.2087644338607788e-02</leafValues></_>
        <_>
          <internalNodes>
            0 -1 40 -1.9620228558778763e-02</internalNodes>
          <leafValues>
            5.3761208057403564e-01 -1.1002536118030548e-01</leafValues></_>
        <_>
          <internalNodes>
            0 -1 233 -2.2176004946231842e-02</internalNodes>
          <leafValues>
            5.1667630672454834e-01 -1.1122648417949677e-01</leafValues></_>
        <_>
          <internalNodes>
            0 -1 217 6.8903067149221897e-03</internalNodes>
          <leafValues>
            -2.3224511742591858e-01 2.7134057879447937e-01</leafValues></_>
        <_>
          <internalNodes>
            0 -1 154 2.0247317850589752e-02</internalNodes>
          <leafValues>
            -1.1253028362989426e-01 4.8133730888366699e-01</leafValues></_>
        <_>
          <internalNodes>
            0 -1 131 -1.4858791604638100e-02</internalNodes>
          <leafValues>
            4.2812469601631165e-01 -1.4097541570663452e-01</leafValues></_>
        <_>
          <internalNodes>
            0 -1 317 3.9926888421177864e-03</internalNodes>
          <leafValues>
            7.1051664650440216e-02 -7.9922038316726685e-01</leafValues></_>
        <_>
          <internalNodes>
            0 -1 221 -7.7418377622961998e-04</internalNodes>
          <leafValues>
            3.0188715457916260e-01 -1.8896917998790741e-01</leafValues></_>
        <_>
          <internalNodes>
            0 -1 140 -6.6658114083111286e-03</internalNodes>
          <leafValues>
            3.0610606074333191e-01 -1.8996061384677887e-01</leafValues></_>
        <_>
          <internalNodes>
            0 -1 262 2.7710404247045517e-03</internalNodes>
          <leafValues>
            -1.3870255649089813e-01 3.9164498448371887e-01</leafValues></_>
        <_>
          <internalNodes>
            0 -1 297 -1.7464903648942709e-03</internalNodes>
          <leafValues>
            5.7543915510177612e-01 -9.8375715315341949e-02</leafValues></_>
        <_>
          <internalNodes>
            0 -1 109 2.9684411128982902e-04</internalNodes>
          <leafValues>
            -2.6414760947227478e-01 2.2670763731002808e-01</leafValues></_></weakClassifiers></_>
    <!-- stage 14 -->
    <_>
      <maxWeakCount>26</maxWeakCount>
      <stageThreshold>-1.5813032388687134e+00</stageThreshold>
      <weakClassifiers>
        <_>
          <internalNodes>
            0 -1 39 1.1607526242733002e-01</internalNodes>
          <leafValues>
            -6.1474794149398804e-01 6.2730625271797180e-02</leafValues></_>
        <_>
          <internalNodes>
            0 -1 35 1.3270819187164307e-01</internalNodes>
          <leafValues>
            -3.0757823586463928e-01 2.3725029826164246e-01</leafValues></_>
        <_>
          <internalNodes>
            0 -1 119 1.4416487514972687e-01</internalNodes>
          <leafValues>
            6.2801912426948547e-02 -9.0022403001785278e-01</leafValues></_>
        <_>
          <internalNodes>
            0 -1 129 -3.0252037569880486e-02</internalNodes>
          <leafValues>
            -5.0846928358078003e-01 1.1021131277084351e-01</leafValues></_>
        <_>
          <internalNodes>
            0 -1 104 -8.0228233709931374e-03</internalNodes>
          <leafValues>
            2.5710082054138184e-01 -2.6279902458190918e-01</leafValues></_>
        <_>
          <internalNodes>
            0 -1 250 -6.2857121229171753e-03</internalNodes>
          <leafValues>
            2.4819007515907288e-01 -2.3945012688636780e-01</leafValues></_>
        <_>
          <internalNodes>
            0 -1 150 -3.9681917987763882e-03</internalNodes>
          <leafValues>
            3.8411694765090942e-01 -1.5741245448589325e-01</leafValues></_>
        <_>
          <internalNodes>
            0 -1 127 2.1853120997548103e-03</internalNodes>
          <leafValues>
            -1.5976734459400177e-01 3.8059267401695251e-01</leafValues></_>
        <_>
          <internalNodes>
            0 -1 197 -1.5366774052381516e-02</internalNodes>
          <leafValues>
            4.7413951158523560e-01 -1.0703146457672119e-01</leafValues></_>
        <_>
          <internalNodes>
            0 -1 288 4.8555922694504261e-04</internalNodes>
          <leafValues>
            9.2683166265487671e-02 -5.8336192369461060e-01</leafValues></_>
        <_>
          <internalNodes>
            0 -1 176 6.6979564726352692e-03</internalNodes>
          <leafValues>
            -1.1640179157257080e-01 4.9317553639411926e-01</leafValues></_>
        <_>
          <internalNodes>
            0 -1 146 1.4829526189714670e-03</internalNodes>
          <leafValues>
            8.6277849972248077e-02 -6.4961475133895874e-01</leafValues></_>
        <_>
          <internalNodes>
            0 -1 166 -1.2479362078011036e-02</internalNodes>
          <leafValues>
            -9.2463397979736328e-01 4.6040739864110947e-02</leafValues></_>
        <_>
          <internalNodes>
            0 -1 267 5.7971361093223095e-04</internalNodes>
          <leafValues>
            -2.6353546977043152e-01 1.9001936912536621e-01</leafValues></_>
        <_>
          <internalNodes>
            0 -1 134 -5.1172412931919098e-03</internalNodes>
          <leafValues>
            2.6196688413619995e-01 -2.1576631069183350e-01</leafValues></_>
        <_>
          <internalNodes>
            0 -1 48 1.2498050928115845e-03</internalNodes>
          <leafValues>
            -1.9979101419448853e-01 2.6429474353790283e-01</leafValues></_>
        <_>
          <internalNodes>
            0 -1 87 1.2274037301540375e-01</internalNodes>
          <leafValues>
            5.8430198580026627e-02 -8.6771714687347412e-01</leafValues></_>
        <_>
          <internalNodes>
            0 -1 238 -2.2172478958964348e-02</internalNodes>
          <leafValues>
            -7.0992100238800049e-01 5.5107753723859787e-02</leafValues></_>
        <_>
          <internalNodes>
            0 -1 50 3.4450285602360964e-04</internalNodes>
          <leafValues>
            -1.6179001331329346e-01 3.2087147235870361e-01</leafValues></_>
        <_>
          <internalNodes>
            0 -1 80 -1.4520543627440929e-03</internalNodes>
          <leafValues>
            2.4773938953876495e-01 -2.0608727633953094e-01</leafValues></_>
        <_>
          <internalNodes>
            0 -1 77 -7.9799868399277329e-04</internalNodes>
          <leafValues>
            3.2888907194137573e-01 -1.6848571598529816e-01</leafValues></_>
        <_>
          <internalNodes>
            0 -1 93 2.0046047866344452e-03</internalNodes>
          <leafValues>
            6.7171514034271240e-02 -8.5290116071701050e-01</leafValues></_>
        <_>
          <internalNodes>
            0 -1 94 -2.4564773775637150e-03</internalNodes>
          <leafValues>
            -7.0373409986495972e-01 6.4621448516845703e-02</leafValues></_>
        <_>
          <internalNodes>
            0 -1 128 -2.3287567310035229e-03</internalNodes>
          <leafValues>
            4.1755944490432739e-01 -1.4347624778747559e-01</leafValues></_>
        <_>
          <internalNodes>
            0 -1 215 3.2144603319466114e-03</internalNodes>
          <leafValues>
            7.3965385556221008e-02 -7.4507433176040649e-01</leafValues></_>
        <_>
          <internalNodes>
            0 -1 1 2.3543054237961769e-02</internalNodes>
          <leafValues>
            1.0009582340717316e-01 -5.3463023900985718e-01</leafValues></_></weakClassifiers></_>
    <!-- stage 15 -->
    <_>
      <maxWeakCount>24</maxWeakCount>
      <stageThreshold>-1.4260101318359375e+00</stageThreshold>
      <weakClassifiers>
        <_>
          <internalNodes>
            0 -1 90 -5.7353127747774124e-02</internalNodes>
          <leafValues>
            3.3333334326744080e-01 -5.7493185997009277e-01</leafValues></_>
        <_>
          <internalNodes>
            0 -1 234 -2.0811939612030983e-02</internalNodes>
          <leafValues>
            3.1159892678260803e-01 -2.3211975395679474e-01</leafValues></_>
        <_>
          <internalNodes>
            0 -1 259 -2.1534985862672329e-03</internalNodes>
          <leafValues>
            2.5609010457992554e-01 -2.3501108586788177e-01</leafValues></_>
        <_>
          <internalNodes>
            0 -1 72 1.2018041685223579e-02</internalNodes>
          <leafValues>
            -1.3093957304954529e-01 4.1401049494743347e-01</leafValues></_>
        <_>
          <internalNodes>
            0 -1 26 5.9162583202123642e-03</internalNodes>
          <leafValues>
            7.0804879069328308e-02 -8.5685157775878906e-01</leafValues></_>
        <_>
          <internalNodes>
            0 -1 293 4.7811185941100121e-03</internalNodes>
          <leafValues>
            6.5812140703201294e-02 -7.8580534458160400e-01</leafValues></_>
        <_>
          <internalNodes>
            0 -1 211 6.0448776930570602e-03</internalNodes>
          <leafValues>
            -7.8409448266029358e-02 6.6143417358398438e-01</leafValues></_>
        <_>
          <internalNodes>
            0 -1 13 4.7805652022361755e-02</internalNodes>
          <leafValues>
            -2.6142194867134094e-01 2.5416797399520874e-01</leafValues></_>
        <_>
          <internalNodes>
            0 -1 252 -6.4106814563274384e-02</internalNodes>
          <leafValues>
            -8.7853908538818359e-01 4.4922098517417908e-02</leafValues></_>
        <_>
          <internalNodes>
            0 -1 280 -6.0144718736410141e-04</internalNodes>
          <leafValues>
            2.6762557029724121e-01 -2.3871204257011414e-01</leafValues></_>
        <_>
          <internalNodes>
            0 -1 69 8.8189072906970978e-02</internalNodes>
          <leafValues>
            1.0189449042081833e-01 -6.5545231103897095e-01</leafValues></_>
        <_>
          <internalNodes>
            0 -1 135 6.8233348429203033e-04</internalNodes>
          <leafValues>
            -2.5286978483200073e-01 2.2278606891632080e-01</leafValues></_>
        <_>
          <internalNodes>
            0 -1 171 6.1476640403270721e-03</internalNodes>
          <leafValues>
            8.5702858865261078e-02 -7.3261553049087524e-01</leafValues></_>
        <_>
          <internalNodes>
            0 -1 164 1.0570846498012543e-03</internalNodes>
          <leafValues>
            -2.0037890970706940e-01 2.6837173104286194e-01</leafValues></_>
        <_>
          <internalNodes>
            0 -1 178 -5.5729551240801811e-04</internalNodes>
          <leafValues>
            4.2936864495277405e-01 -1.2749113142490387e-01</leafValues></_>
        <_>
          <internalNodes>
            0 -1 277 -6.4860715065151453e-04</internalNodes>
          <leafValues>
            -6.1757755279541016e-01 9.0226128697395325e-02</leafValues></_>
        <_>
          <internalNodes>
            0 -1 320 4.8396252095699310e-03</internalNodes>
          <leafValues>
            -1.8997433781623840e-01 3.0222308635711670e-01</leafValues></_>
        <_>
          <internalNodes>
            0 -1 253 2.4113189429044724e-02</internalNodes>
          <leafValues>
            9.0370818972587585e-02 -6.4903944730758667e-01</leafValues></_>
        <_>
          <internalNodes>
            0 -1 86 -7.5474232435226440e-03</internalNodes>
          <leafValues>
            5.2510446310043335e-01 -1.1328487098217010e-01</leafValues></_>
        <_>
          <internalNodes>
            0 -1 139 -1.5053528477437794e-04</internalNodes>
          <leafValues>
            2.1708495914936066e-01 -2.6268967986106873e-01</leafValues></_>
        <_>
          <internalNodes>
            0 -1 277 4.0995728340931237e-04</internalNodes>
          <leafValues>
            1.0289125144481659e-01 -5.3699046373367310e-01</leafValues></_>
        <_>
          <internalNodes>
            0 -1 185 -5.7543078437447548e-03</internalNodes>
          <leafValues>
            4.5085668563842773e-01 -1.3084377348423004e-01</leafValues></_>
        <_>
          <internalNodes>
            0 -1 108 -6.0874717310070992e-03</internalNodes>
          <leafValues>
            2.7400445938110352e-01 -1.9896875321865082e-01</leafValues></_>
        <_>
          <internalNodes>
            0 -1 232 4.6355482190847397e-03</internalNodes>
          <leafValues>
            -1.3144811987876892e-01 4.0896168351173401e-01</leafValues></_></weakClassifiers></_>
    <!-- stage 16 -->
    <_>
      <maxWeakCount>20</maxWeakCount>
      <stageThreshold>-1.3476698398590088e+00</stageThreshold>
      <weakClassifiers>
        <_>
          <internalNodes>
            0 -1 68 9.3817442655563354e-02</internalNodes>
          <leafValues>
            -6.0722345113754272e-01 2.5830257683992386e-02</leafValues></_>
        <_>
          <internalNodes>
            0 -1 12 1.3615068793296814e-01</internalNodes>
          <leafValues>
            -2.7527076005935669e-01 2.3963388800621033e-01</leafValues></_>
        <_>
          <internalNodes>
            0 -1 285 4.1690664365887642e-03</internalNodes>
          <leafValues>
            7.9919368028640747e-02 -6.2740266323089600e-01</leafValues></_>
        <_>
          <internalNodes>
            0 -1 126 -3.0288780108094215e-03</internalNodes>
          <leafValues>
            4.1579940915107727e-01 -1.1157011985778809e-01</leafValues></_>
        <_>
          <internalNodes>
            0 -1 156 5.6652463972568512e-02</internalNodes>
          <leafValues>
            -1.8341909348964691e-01 3.3980953693389893e-01</leafValues></_>
        <_>
          <internalNodes>
            0 -1 120 1.0993748903274536e-01</internalNodes>
          <leafValues>
            4.6501044183969498e-02 -8.7062579393386841e-01</leafValues></_>
        <_>
          <internalNodes>
            0 -1 133 4.1423141956329346e-03</internalNodes>
          <leafValues>
            7.1352176368236542e-02 -7.1952342987060547e-01</leafValues></_>
        <_>
          <internalNodes>
            0 -1 30 5.1910826005041599e-03</internalNodes>
          <leafValues>
            -2.7565148472785950e-01 2.0803149044513702e-01</leafValues></_>
        <_>
          <internalNodes>
            0 -1 105 -9.2648435384035110e-04</internalNodes>
          <leafValues>
            2.5326579809188843e-01 -2.2421136498451233e-01</leafValues></_>
        <_>
          <internalNodes>
            0 -1 322 -4.2728129774332047e-03</internalNodes>
          <leafValues>
            4.6612048149108887e-01 -1.1821886152029037e-01</leafValues></_>
        <_>
          <internalNodes>
            0 -1 309 4.1674021631479263e-03</internalNodes>
          <leafValues>
            -1.8400849401950836e-01 3.0884516239166260e-01</leafValues></_>
        <_>
          <internalNodes>
            0 -1 49 -4.4863292714580894e-04</internalNodes>
          <leafValues>
            3.4377172589302063e-01 -1.6340559720993042e-01</leafValues></_>
        <_>
          <internalNodes>
            0 -1 209 -5.9572927420958877e-04</internalNodes>
          <leafValues>
            3.4973895549774170e-01 -1.5723766386508942e-01</leafValues></_>
        <_>
          <internalNodes>
            0 -1 209 8.2110456423833966e-04</internalNodes>
          <leafValues>
            -1.2523433566093445e-01 4.5542106032371521e-01</leafValues></_>
        <_>
          <internalNodes>
            0 -1 305 4.6911579556763172e-04</internalNodes>
          <leafValues>
            1.1237233132123947e-01 -5.6538122892379761e-01</leafValues></_>
        <_>
          <internalNodes>
            0 -1 17 -1.3497563777491450e-03</internalNodes>
          <leafValues>
            4.3358889222145081e-01 -1.5957437455654144e-01</leafValues></_>
        <_>
          <internalNodes>
            0 -1 181 2.8168319258838892e-03</internalNodes>
          <leafValues>
            8.5903987288475037e-02 -8.0235874652862549e-01</leafValues></_>
        <_>
          <internalNodes>
            0 -1 258 -1.9963248632848263e-03</internalNodes>
          <leafValues>
            2.9543557763099670e-01 -1.9098521769046783e-01</leafValues></_>
        <_>
          <internalNodes>
            0 -1 67 -1.4424199238419533e-02</internalNodes>
          <leafValues>
            -6.8811190128326416e-01 7.7255733311176300e-02</leafValues></_>
        <_>
          <internalNodes>
            0 -1 231 -7.1864072233438492e-03</internalNodes>
          <leafValues>
            4.5361319184303284e-01 -1.3627955317497253e-01</leafValues></_></weakClassifiers></_>
    <!-- stage 17 -->
    <_>
      <maxWeakCount>20</maxWeakCount>
      <stageThreshold>-1.3368870019912720e+00</stageThreshold>
      <weakClassifiers>
        <_>
          <internalNodes>
            0 -1 6 5.0385922193527222e-02</internalNodes>
          <leafValues>
            -6.5060240030288696e-01 -1.0045661777257919e-01</leafValues></_>
        <_>
          <internalNodes>
            0 -1 319 -1.1666037142276764e-02</internalNodes>
          <leafValues>
            2.2317056357860565e-01 -2.9605406522750854e-01</leafValues></_>
        <_>
          <internalNodes>
            0 -1 276 -1.0487013787496835e-04</internalNodes>
          <leafValues>
            2.2461657226085663e-01 -2.6272341609001160e-01</leafValues></_>
        <_>
          <internalNodes>
            0 -1 308 3.3146774512715638e-05</internalNodes>
          <leafValues>
            -2.7048891782760620e-01 1.8930330872535706e-01</leafValues></_>
        <_>
          <internalNodes>
            0 -1 0 -9.4328267732635140e-04</internalNodes>
          <leafValues>
            2.7669808268547058e-01 -1.8357370793819427e-01</leafValues></_>
        <_>
          <internalNodes>
            0 -1 28 -2.5802437216043472e-02</internalNodes>
          <leafValues>
            6.4543902873992920e-01 -8.4533549845218658e-02</leafValues></_>
        <_>
          <internalNodes>
            0 -1 59 -4.5461192727088928e-02</internalNodes>
          <leafValues>
            -6.4287543296813965e-01 9.0967766940593719e-02</leafValues></_>
        <_>
          <internalNodes>
            0 -1 222 1.0095213539898396e-02</internalNodes>
          <leafValues>
            -1.6532541811466217e-01 3.5743829607963562e-01</leafValues></_>
        <_>
          <internalNodes>
            0 -1 266 8.7582059204578400e-03</internalNodes>
          <leafValues>
            7.6525971293449402e-02 -7.6182240247726440e-01</leafValues></_>
        <_>
          <internalNodes>
            0 -1 300 -7.8196392860263586e-04</internalNodes>
          <leafValues>
            3.3389076590538025e-01 -1.6228978335857391e-01</leafValues></_>
        <_>
          <internalNodes>
            0 -1 186 1.5158788859844208e-01</internalNodes>
          <leafValues>
            -1.3502854108810425e-01 4.2526447772979736e-01</leafValues></_>
        <_>
          <internalNodes>
            0 -1 235 -5.0109224393963814e-03</internalNodes>
          <leafValues>
            3.0623844265937805e-01 -1.8990655243396759e-01</leafValues></_>
        <_>
          <internalNodes>
            0 -1 163 -2.1595479920506477e-02</internalNodes>
          <leafValues>
            -7.1932125091552734e-01 8.0204002559185028e-02</leafValues></_>
        <_>
          <internalNodes>
            0 -1 216 -5.7592529628891498e-05</internalNodes>
          <leafValues>
            1.7476153373718262e-01 -3.0904176831245422e-01</leafValues></_>
        <_>
          <internalNodes>
            0 -1 324 1.0079572675749660e-03</internalNodes>
          <leafValues>
            -2.4557057023048401e-01 2.4447587132453918e-01</leafValues></_>
        <_>
          <internalNodes>
            0 -1 25 -3.8884165696799755e-03</internalNodes>
          <leafValues>
            3.5492146015167236e-01 -1.6211391985416412e-01</leafValues></_>
        <_>
          <internalNodes>
            0 -1 239 4.1637034155428410e-03</internalNodes>
          <leafValues>
            7.4287071824073792e-02 -8.0169296264648438e-01</leafValues></_>
        <_>
          <internalNodes>
            0 -1 19 -6.4079170115292072e-03</internalNodes>
          <leafValues>
            4.8549658060073853e-01 -1.3903187215328217e-01</leafValues></_>
        <_>
          <internalNodes>
            0 -1 148 6.1947740614414215e-03</internalNodes>
          <leafValues>
            -1.6811192035675049e-01 3.6718893051147461e-01</leafValues></_>
        <_>
          <internalNodes>
            0 -1 9 -3.3257543109357357e-03</internalNodes>
          <leafValues>
            -5.6307989358901978e-01 1.0796420276165009e-01</leafValues></_></weakClassifiers></_>
    <!-- stage 18 -->
    <_>
      <maxWeakCount>26</maxWeakCount>
      <stageThreshold>-1.4683605432510376e+00</stageThreshold>
      <weakClassifiers>
        <_>
          <internalNodes>
            0 -1 3 2.3062151670455933e-01</internalNodes>
          <leafValues>
            -6.4463520050048828e-01 -1.1264368146657944e-01</leafValues></_>
        <_>
          <internalNodes>
            0 -1 153 2.3818410933017731e-02</internalNodes>
          <leafValues>
            -1.9792342185974121e-01 3.6693212389945984e-01</leafValues></_>
        <_>
          <internalNodes>
            0 -1 121 4.8940636217594147e-02</internalNodes>
          <leafValues>
            1.0394554585218430e-01 -5.3246796131134033e-01</leafValues></_>
        <_>
          <internalNodes>
            0 -1 219 -2.1631876006722450e-03</internalNodes>
          <leafValues>
            -8.2948416471481323e-01 8.6679294705390930e-02</leafValues></_>
        <_>
          <internalNodes>
            0 -1 161 5.2902637980878353e-03</internalNodes>
          <leafValues>
            -2.4886476993560791e-01 2.1317304670810699e-01</leafValues></_>
        <_>
          <internalNodes>
            0 -1 212 6.6895028576254845e-03</internalNodes>
          <leafValues>
            -2.0067776739597321e-01 2.7788785099983215e-01</leafValues></_>
        <_>
          <internalNodes>
            0 -1 141 1.1964663863182068e-02</internalNodes>
          <leafValues>
            1.1816909164190292e-01 -4.8500171303749084e-01</leafValues></_>
        <_>
          <internalNodes>
            0 -1 99 -1.2002027034759521e-01</internalNodes>
          <leafValues>
            -4.9860236048698425e-01 1.1033545434474945e-01</leafValues></_>
        <_>
          <internalNodes>
            0 -1 130 -1.0232230648398399e-02</internalNodes>
          <leafValues>
            -7.3167324066162109e-01 6.8562775850296021e-02</leafValues></_>
        <_>
          <internalNodes>
            0 -1 261 2.0094546489417553e-03</internalNodes>
          <leafValues>
            -2.4594332277774811e-01 2.1242120862007141e-01</leafValues></_>
        <_>
          <internalNodes>
            0 -1 97 -1.7839856445789337e-03</internalNodes>
          <leafValues>
            3.7470445036888123e-01 -1.4875388145446777e-01</leafValues></_>
        <_>
          <internalNodes>
            0 -1 7 2.1426522289402783e-04</internalNodes>
          <leafValues>
            1.7348250746726990e-01 -2.7967551350593567e-01</leafValues></_>
        <_>
          <internalNodes>
            0 -1 182 -2.8586073312908411e-04</internalNodes>
          <leafValues>
            1.8756419420242310e-01 -2.6685360074043274e-01</leafValues></_>
        <_>
          <internalNodes>
            0 -1 218 -1.8571387045085430e-03</internalNodes>
          <leafValues>
            3.4598359465599060e-01 -1.6967481374740601e-01</leafValues></_>
        <_>
          <internalNodes>
            0 -1 53 5.5773621425032616e-03</internalNodes>
          <leafValues>
            -1.1825430393218994e-01 4.4636240601539612e-01</leafValues></_>
        <_>
          <internalNodes>
            0 -1 240 -7.5638346374034882e-02</internalNodes>
          <leafValues>
            4.0655159950256348e-01 -1.2069279700517654e-01</leafValues></_>
        <_>
          <internalNodes>
            0 -1 290 1.2462459504604340e-02</internalNodes>
          <leafValues>
            -1.1409857124090195e-01 4.6005651354789734e-01</leafValues></_>
        <_>
          <internalNodes>
            0 -1 18 1.4283417724072933e-02</internalNodes>
          <leafValues>
            -1.1002050340175629e-01 5.3816914558410645e-01</leafValues></_>
        <_>
          <internalNodes>
            0 -1 177 -3.6982484161853790e-02</internalNodes>
          <leafValues>
            7.7560746669769287e-01 -7.7623426914215088e-02</leafValues></_>
        <_>
          <internalNodes>
            0 -1 175 -1.5020775608718395e-03</internalNodes>
          <leafValues>
            3.9069271087646484e-01 -1.3656480610370636e-01</leafValues></_>
        <_>
          <internalNodes>
            0 -1 70 3.9378562942147255e-03</internalNodes>
          <leafValues>
            -1.4992569386959076e-01 4.0666419267654419e-01</leafValues></_>
        <_>
          <internalNodes>
            0 -1 24 -1.1001307517290115e-02</internalNodes>
          <leafValues>
            4.1212594509124756e-01 -1.3432955741882324e-01</leafValues></_>
        <_>
          <internalNodes>
            0 -1 102 5.2830488421022892e-03</internalNodes>
          <leafValues>
            -1.0599984973669052e-01 4.6811109781265259e-01</leafValues></_>
        <_>
          <internalNodes>
            0 -1 256 2.4300871882587671e-03</internalNodes>
          <leafValues>
            6.0910940170288086e-02 -9.8245376348495483e-01</leafValues></_>
        <_>
          <internalNodes>
            0 -1 114 1.1734349653124809e-02</internalNodes>
          <leafValues>
            4.3780498206615448e-02 -7.9373365640640259e-01</leafValues></_>
        <_>
          <internalNodes>
            0 -1 321 7.2097114752978086e-05</internalNodes>
          <leafValues>
            -2.7545964717864990e-01 1.8414911627769470e-01</leafValues></_></weakClassifiers></_>
    <!-- stage 19 -->
    <_>
      <maxWeakCount>24</maxWeakCount>
      <stageThreshold>-1.3282510042190552e+00</stageThreshold>
      <weakClassifiers>
        <_>
          <internalNodes>
            0 -1 44 7.6248735189437866e-02</internalNodes>
          <leafValues>
            -6.1080223321914673e-01 -9.0909093618392944e-02</leafValues></_>
        <_>
          <internalNodes>
            0 -1 10 -2.4003982543945312e-02</internalNodes>
          <leafValues>
            -5.2574831247329712e-01 5.9966068714857101e-02</leafValues></_>
        <_>
          <internalNodes>
            0 -1 142 9.3482267111539841e-03</internalNodes>
          <leafValues>
            -1.3227571547031403e-01 4.7481614351272583e-01</leafValues></_>
        <_>
          <internalNodes>
            0 -1 62 -5.8904867619276047e-03</internalNodes>
          <leafValues>
            -3.9989382028579712e-01 1.3149911165237427e-01</leafValues></_>
        <_>
          <internalNodes>
            0 -1 65 1.8752388656139374e-02</internalNodes>
          <leafValues>
            1.4461116492748260e-01 -4.1953036189079285e-01</leafValues></_>
        <_>
          <internalNodes>
            0 -1 107 9.2966537922620773e-03</internalNodes>
          <leafValues>
            8.5640422999858856e-02 -7.5285834074020386e-01</leafValues></_>
        <_>
          <internalNodes>
            0 -1 180 4.3731171172112226e-04</internalNodes>
          <leafValues>
            -2.1655288338661194e-01 2.6238310337066650e-01</leafValues></_>
        <_>
          <internalNodes>
            0 -1 162 1.0168580710887909e-01</internalNodes>
          <leafValues>
            6.4899660646915436e-02 -9.8000741004943848e-01</leafValues></_>
        <_>
          <internalNodes>
            0 -1 137 1.7865505651570857e-04</internalNodes>
          <leafValues>
            1.1932769417762756e-01 -3.7012553215026855e-01</leafValues></_>
        <_>
          <internalNodes>
            0 -1 89 3.0192025005817413e-03</internalNodes>
          <leafValues>
            -1.4864519238471985e-01 3.6966431140899658e-01</leafValues></_>
        <_>
          <internalNodes>
            0 -1 111 1.2242559343576431e-02</internalNodes>
          <leafValues>
            -1.2345784902572632e-01 4.7483649849891663e-01</leafValues></_>
        <_>
          <internalNodes>
            0 -1 292 8.5025053704157472e-04</internalNodes>
          <leafValues>
            7.9105466604232788e-02 -7.2924566268920898e-01</leafValues></_>
        <_>
          <internalNodes>
            0 -1 83 9.6844352083280683e-04</internalNodes>
          <leafValues>
            -2.5000932812690735e-01 2.4109038710594177e-01</leafValues></_>
        <_>
          <internalNodes>
            0 -1 224 3.7703958805650473e-03</internalNodes>
          <leafValues>
            -1.2679849565029144e-01 4.2581936717033386e-01</leafValues></_>
        <_>
          <internalNodes>
            0 -1 81 2.7249695733189583e-02</internalNodes>
          <leafValues>
            -1.2149789929389954e-01 4.6830359101295471e-01</leafValues></_>
        <_>
          <internalNodes>
            0 -1 169 -1.9414793699979782e-02</internalNodes>
          <leafValues>
            4.5139309763908386e-01 -1.3444022834300995e-01</leafValues></_>
        <_>
          <internalNodes>
            0 -1 184 5.7071978226304054e-03</internalNodes>
          <leafValues>
            -1.1792775988578796e-01 4.6498459577560425e-01</leafValues></_>
        <_>
          <internalNodes>
            0 -1 189 -1.2167116254568100e-01</internalNodes>
          <leafValues>
            7.7815800905227661e-01 -6.6626340150833130e-02</leafValues></_>
        <_>
          <internalNodes>
            0 -1 206 -1.3147429563105106e-03</internalNodes>
          <leafValues>
            2.8852719068527222e-01 -2.0490960776805878e-01</leafValues></_>
        <_>
          <internalNodes>
            0 -1 194 -1.6179449157789350e-03</internalNodes>
          <leafValues>
            2.5988721847534180e-01 -2.2176015377044678e-01</leafValues></_>
        <_>
          <internalNodes>
            0 -1 283 -6.9152191281318665e-04</internalNodes>
          <leafValues>
            -7.6304161548614502e-01 7.6352797448635101e-02</leafValues></_>
        <_>
          <internalNodes>
            0 -1 315 7.5664855539798737e-03</internalNodes>
          <leafValues>
            -1.2129005789756775e-01 5.3688246011734009e-01</leafValues></_>
        <_>
          <internalNodes>
            0 -1 270 2.4927736376412213e-04</internalNodes>
          <leafValues>
            -2.4529649317264557e-01 2.2299544513225555e-01</leafValues></_>
        <_>
          <internalNodes>
            0 -1 236 1.0181253310292959e-03</internalNodes>
          <leafValues>
            -1.4658795297145844e-01 4.1086518764495850e-01</leafValues></_></weakClassifiers></_></stages>
  <features>
    <_>
      <rects>
        <_>
          0 1 6 2 -1.</_>
        <_>
          0 2 6 1 2.</_></rects>
      <tilted>0</tilted></_>
    <_>
      <rects>
        <_>
          0 1 14 2 -1.</_>
        <_>
          7 1 7 2 2.</_></rects>
      <tilted>0</tilted></_>
    <_>
      <rects>
        <_>
          0 2 9 6 -1.</_>
        <_>
          3 2 3 6 3.</_></rects>
      <tilted>0</tilted></_>
    <_>
      <rects>
        <_>
          0 4 13 24 -1.</_>
        <_>
          0 16 13 12 2.</_></rects>
      <tilted>0</tilted></_>
    <_>
      <rects>
        <_>
          0 5 2 17 -1.</_>
        <_>
          1 5 1 17 2.</_></rects>
      <tilted>0</tilted></_>
    <_>
      <rects>
        <_>
          0 6 8 12 -1.</_>
        <_>
          4 6 4 12 2.</_></rects>
      <tilted>0</tilted></_>
    <_>
      <rects>
        <_>
          0 8 8 5 -1.</_>
        <_>
          4 8 4 5 2.</_></rects>
      <tilted>0</tilted></_>
    <_>
      <rects>
        <_>
          0 11 2 1 -1.</_>
        <_>
          1 11 1 1 2.</_></rects>
      <tilted>0</tilted></_>
    <_>
      <rects>
        <_>
          0 11 2 2 -1.</_>
        <_>
          1 11 1 2 2.</_></rects>
      <tilted>0</tilted></_>
    <_>
      <rects>
        <_>
          0 11 2 6 -1.</_>
        <_>
          1 11 1 6 2.</_></rects>
      <tilted>0</tilted></_>
    <_>
      <rects>
        <_>
          0 11 9 10 -1.</_>
        <_>
          3 11 3 10 3.</_></rects>
      <tilted>0</tilted></_>
    <_>
      <rects>
        <_>
          0 11 4 12 -1.</_>
        <_>
          0 17 4 6 2.</_></rects>
      <tilted>0</tilted></_>
    <_>
      <rects>
        <_>
          0 12 11 18 -1.</_>
        <_>
          0 18 11 6 3.</_></rects>
      <tilted>0</tilted></_>
    <_>
      <rects>
        <_>
          0 13 9 15 -1.</_>
        <_>
          0 18 9 5 3.</_></rects>
      <tilted>0</tilted></_>
    <_>
      <rects>
        <_>
          0 14 2 10 -1.</_>
        <_>
          0 19 2 5 2.</_></rects>
      <tilted>0</tilted></_>
    <_>
      <rects>
        <_>
          0 14 6 15 -1.</_>
        <_>
          0 19 6 5 3.</_></rects>
      <tilted>0</tilted></_>
    <_>
      <rects>
        <_>
          0 17 4 2 -1.</_>
        <_>
          2 17 2 2 2.</_></rects>
      <tilted>0</tilted></_>
    <_>
      <rects>
        <_>
          0 18 3 1 -1.</_>
        <_>
          1 18 1 1 3.</_></rects>
      <tilted>0</tilted></_>
    <_>
      <rects>
        <_>
          0 18 2 14 -1.</_>
        <_>
          1 18 1 14 2.</_></rects>
      <tilted>0</tilted></_>
    <_>
      <rects>
        <_>
          0 18 4 3 -1.</_>
        <_>
          2 18 2 3 2.</_></rects>
      <tilted>0</tilted></_>
    <_>
      <rects>
        <_>
          0 18 11 2 -1.</_>
        <_>
          0 19 11 1 2.</_></rects>
      <tilted>0</tilted></_>
    <_>
      <rects>
        <_>
          0 21 4 8 -1.</_>
        <_>
          0 21 2 4 2.</_>
        <_>
          2 25 2 4 2.</_></rects>
      <tilted>0</tilted></_>
    <_>
      <rects>
        <_>
          0 23 2 6 -1.</_>
        <_>
          0 23 1 3 2.</_>
        <_>
          1 26 1 3 2.</_></rects>
      <tilted>0</tilted></_>
    <_>
      <rects>
        <_>
          0 23 10 6 -1.</_>
        <_>
          0 23 5 3 2.</_>
        <_>
          5 26 5 3 2.</_></rects>
      <tilted>0</tilted></_>
    <_>
      <rects>
        <_>
          0 25 6 6 -1.</_>
        <_>
          2 25 2 6 3.</_></rects>
      <tilted>0</tilted></_>
    <_>
      <rects>
        <_>
          0 26 4 6 -1.</_>
        <_>
          0 26 2 3 2.</_>
        <_>
          2 29 2 3 2.</_></rects>
      <tilted>0</tilted></_>
    <_>
      <rects>
        <_>
          0 28 6 2 -1.</_>
        <_>
          0 29 6 1 2.</_></rects>
      <tilted>0</tilted></_>
    <_>
      <rects>
        <_>
          1 1 2 21 -1.</_>
        <_>
          1 8 2 7 3.</_></rects>
      <tilted>0</tilted></_>
    <_>
      <rects>
        <_>
          1 1 6 3 -1.</_>
        <_>
          4 1 3 3 2.</_></rects>
      <tilted>0</tilted></_>
    <_>
      <rects>
        <_>
          1 1 8 16 -1.</_>
        <_>
          1 1 4 8 2.</_>
        <_>
          5 9 4 8 2.</_></rects>
      <tilted>0</tilted></_>
    <_>
      <rects>
        <_>
          1 2 8 12 -1.</_>
        <_>
          1 6 8 4 3.</_></rects>
      <tilted>0</tilted></_>
    <_>
      <rects>
        <_>
          1 3 6 11 -1.</_>
        <_>
          3 3 2 11 3.</_></rects>
      <tilted>0</tilted></_>
    <_>
      <rects>
        <_>
          1 4 6 3 -1.</_>
        <_>
          3 4 2 3 3.</_></rects>
      <tilted>0</tilted></_>
    <_>
      <rects>
        <_>
          1 5 14 2 -1.</_>
        <_>
          8 5 7 2 2.</_></rects>
      <tilted>0</tilted></_>
    <_>
      <rects>
        <_>
          1 5 10 22 -1.</_>
        <_>
          1 16 10 11 2.</_></rects>
      <tilted>0</tilted></_>
    <_>
      <rects>
        <_>
          1 5 11 20 -1.</_>
        <_>
          1 15 11 10 2.</_></rects>
      <tilted>0</tilted></_>
    <_>
      <rects>
        <_>
          1 6 9 8 -1.</_>
        <_>
          4 6 3 8 3.</_></rects>
      <tilted>0</tilted></_>
    <_>
      <rects>
        <_>
          1 7 9 4 -1.</_>
        <_>
          4 7 3 4 3.</_></rects>
      <tilted>0</tilted></_>
    <_>
      <rects>
        <_>
          1 7 9 5 -1.</_>
        <_>
          4 7 3 5 3.</_></rects>
      <tilted>0</tilted></_>
    <_>
      <rects>
        <_>
          1 7 9 7 -1.</_>
        <_>
          4 7 3 7 3.</_></rects>
      <tilted>0</tilted></_>
    <_>
      <rects>
        <_>
          1 8 9 2 -1.</_>
        <_>
          4 8 3 2 3.</_></rects>
      <tilted>0</tilted></_>
    <_>
      <rects>
        <_>
          1 10 1 16 -1.</_>
        <_>
          1 18 1 8 2.</_></rects>
      <tilted>0</tilted></_>
    <_>
      <rects>
        <_>
          1 10 4 21 -1.</_>
        <_>
          1 17 4 7 3.</_></rects>
      <tilted>0</tilted></_>
    <_>
      <rects>
        <_>
          1 10 10 12 -1.</_>
        <_>
          1 16 10 6 2.</_></rects>
      <tilted>0</tilted></_>
    <_>
      <rects>
        <_>
          1 12 10 8 -1.</_>
        <_>
          1 16 10 4 2.</_></rects>
      <tilted>0</tilted></_>
    <_>
      <rects>
        <_>
          1 14 7 6 -1.</_>
        <_>
          1 16 7 2 3.</_></rects>
      <tilted>0</tilted></_>
    <_>
      <rects>
        <_>
          1 16 5 3 -1.</_>
        <_>
          1 17 5 1 3.</_></rects>
      <tilted>0</tilted></_>
    <_>
      <rects>
        <_>
          1 16 9 2 -1.</_>
        <_>
          1 17 9 1 2.</_></rects>
      <tilted>0</tilted></_>
    <_>
      <rects>
        <_>
          1 18 3 3 -1.</_>
        <_>
          2 18 1 3 3.</_></rects>
      <tilted>0</tilted></_>
    <_>
      <rects>
        <_>
          1 25 2 1 -1.</_>
        <_>
          2 25 1 1 2.</_></rects>
      <tilted>0</tilted></_>
    <_>
      <rects>
        <_>
          1 28 2 2 -1.</_>
        <_>
          1 28 1 1 2.</_>
        <_>
          2 29 1 1 2.</_></rects>
      <tilted>0</tilted></_>
    <_>
      <rects>
        <_>
          1 30 13 2 -1.</_>
        <_>
          1 31 13 1 2.</_></rects>
      <tilted>0</tilted></_>
    <_>
      <rects>
        <_>
          2 0 2 2 -1.</_>
        <_>
          2 0 1 1 2.</_>
        <_>
          3 1 1 1 2.</_></rects>
      <tilted>0</tilted></_>
    <_>
      <rects>
        <_>
          2 0 2 8 -1.</_>
        <_>
          2 0 1 4 2.</_>
        <_>
          3 4 1 4 2.</_></rects>
      <tilted>0</tilted></_>
    <_>
      <rects>
        <_>
          2 0 4 4 -1.</_>
        <_>
          2 0 2 2 2.</_>
        <_>
          4 2 2 2 2.</_></rects>
      <tilted>0</tilted></_>
    <_>
      <rects>
        <_>
          2 0 14 2 -1.</_>
        <_>
          2 0 7 1 2.</_>
        <_>
          9 1 7 1 2.</_></rects>
      <tilted>0</tilted></_>
    <_>
      <rects>
        <_>
          2 1 6 14 -1.</_>
        <_>
          2 1 3 7 2.</_>
        <_>
          5 8 3 7 2.</_></rects>
      <tilted>0</tilted></_>
    <_>
      <rects>
        <_>
          2 1 6 6 -1.</_>
        <_>
          2 3 6 2 3.</_></rects>
      <tilted>0</tilted></_>
    <_>
      <rects>
        <_>
          2 2 8 4 -1.</_>
        <_>
          6 2 4 4 2.</_></rects>
      <tilted>0</tilted></_>
    <_>
      <rects>
        <_>
          2 3 14 10 -1.</_>
        <_>
          2 3 7 5 2.</_>
        <_>
          9 8 7 5 2.</_></rects>
      <tilted>0</tilted></_>
    <_>
      <rects>
        <_>
          2 4 14 6 -1.</_>
        <_>
          9 4 7 6 2.</_></rects>
      <tilted>0</tilted></_>
    <_>
      <rects>
        <_>
          2 5 12 17 -1.</_>
        <_>
          8 5 6 17 2.</_></rects>
      <tilted>0</tilted></_>
    <_>
      <rects>
        <_>
          2 5 14 1 -1.</_>
        <_>
          9 5 7 1 2.</_></rects>
      <tilted>0</tilted></_>
    <_>
      <rects>
        <_>
          2 6 4 2 -1.</_>
        <_>
          4 6 2 2 2.</_></rects>
      <tilted>0</tilted></_>
    <_>
      <rects>
        <_>
          2 6 9 14 -1.</_>
        <_>
          5 6 3 14 3.</_></rects>
      <tilted>0</tilted></_>
    <_>
      <rects>
        <_>
          2 6 14 5 -1.</_>
        <_>
          9 6 7 5 2.</_></rects>
      <tilted>0</tilted></_>
    <_>
      <rects>
        <_>
          2 8 14 2 -1.</_>
        <_>
          9 8 7 2 2.</_></rects>
      <tilted>0</tilted></_>
    <_>
      <rects>
        <_>
          2 8 7 4 -1.</_>
        <_>
          2 10 7 2 2.</_></rects>
      <tilted>0</tilted></_>
    <_>
      <rects>
        <_>
          2 9 9 6 -1.</_>
        <_>
          5 9 3 6 3.</_></rects>
      <tilted>0</tilted></_>
    <_>
      <rects>
        <_>
          2 9 12 12 -1.</_>
        <_>
          8 9 6 12 2.</_></rects>
      <tilted>0</tilted></_>
    <_>
      <rects>
        <_>
          2 10 2 10 -1.</_>
        <_>
          2 10 1 5 2.</_>
        <_>
          3 15 1 5 2.</_></rects>
      <tilted>0</tilted></_>
    <_>
      <rects>
        <_>
          2 10 9 4 -1.</_>
        <_>
          5 10 3 4 3.</_></rects>
      <tilted>0</tilted></_>
    <_>
      <rects>
        <_>
          2 13 4 6 -1.</_>
        <_>
          2 15 4 2 3.</_></rects>
      <tilted>0</tilted></_>
    <_>
      <rects>
        <_>
          2 13 7 6 -1.</_>
        <_>
          2 15 7 2 3.</_></rects>
      <tilted>0</tilted></_>
    <_>
      <rects>
        <_>
          2 13 7 12 -1.</_>
        <_>
          2 17 7 4 3.</_></rects>
      <tilted>0</tilted></_>
    <_>
      <rects>
        <_>
          2 14 9 1 -1.</_>
        <_>
          5 14 3 1 3.</_></rects>
      <tilted>0</tilted></_>
    <_>
      <rects>
        <_>
          2 16 6 6 -1.</_>
        <_>
          2 18 6 2 3.</_></rects>
      <tilted>0</tilted></_>
    <_>
      <rects>
        <_>
          2 17 4 3 -1.</_>
        <_>
          2 18 4 1 3.</_></rects>
      <tilted>0</tilted></_>
    <_>
      <rects>
        <_>
          2 17 4 10 -1.</_>
        <_>
          2 22 4 5 2.</_></rects>
      <tilted>0</tilted></_>
    <_>
      <rects>
        <_>
          2 17 5 3 -1.</_>
        <_>
          2 18 5 1 3.</_></rects>
      <tilted>0</tilted></_>
    <_>
      <rects>
        <_>
          2 18 5 2 -1.</_>
        <_>
          2 19 5 1 2.</_></rects>
      <tilted>0</tilted></_>
    <_>
      <rects>
        <_>
          2 20 10 8 -1.</_>
        <_>
          2 20 5 4 2.</_>
        <_>
          7 24 5 4 2.</_></rects>
      <tilted>0</tilted></_>
    <_>
      <rects>
        <_>
          2 27 4 4 -1.</_>
        <_>
          2 27 2 2 2.</_>
        <_>
          4 29 2 2 2.</_></rects>
      <tilted>0</tilted></_>
    <_>
      <rects>
        <_>
          2 29 11 3 -1.</_>
        <_>
          2 30 11 1 3.</_></rects>
      <tilted>0</tilted></_>
    <_>
      <rects>
        <_>
          3 1 4 18 -1.</_>
        <_>
          3 1 2 9 2.</_>
        <_>
          5 10 2 9 2.</_></rects>
      <tilted>0</tilted></_>
    <_>
      <rects>
        <_>
          3 1 6 2 -1.</_>
        <_>
          3 2 6 1 2.</_></rects>
      <tilted>0</tilted></_>
    <_>
      <rects>
        <_>
          3 2 2 10 -1.</_>
        <_>
          3 2 1 5 2.</_>
        <_>
          4 7 1 5 2.</_></rects>
      <tilted>0</tilted></_>
    <_>
      <rects>
        <_>
          3 2 12 20 -1.</_>
        <_>
          3 2 6 10 2.</_>
        <_>
          9 12 6 10 2.</_></rects>
      <tilted>0</tilted></_>
    <_>
      <rects>
        <_>
          3 5 1 18 -1.</_>
        <_>
          3 11 1 6 3.</_></rects>
      <tilted>0</tilted></_>
    <_>
      <rects>
        <_>
          3 5 4 1 -1.</_>
        <_>
          5 5 2 1 2.</_></rects>
      <tilted>0</tilted></_>
    <_>
      <rects>
        <_>
          3 7 2 15 -1.</_>
        <_>
          3 12 2 5 3.</_></rects>
      <tilted>0</tilted></_>
    <_>
      <rects>
        <_>
          3 7 12 11 -1.</_>
        <_>
          9 7 6 11 2.</_></rects>
      <tilted>0</tilted></_>
    <_>
      <rects>
        <_>
          3 8 12 6 -1.</_>
        <_>
          9 8 6 6 2.</_></rects>
      <tilted>0</tilted></_>
    <_>
      <rects>
        <_>
          3 9 3 2 -1.</_>
        <_>
          3 10 3 1 2.</_></rects>
      <tilted>0</tilted></_>
    <_>
      <rects>
        <_>
          3 9 4 3 -1.</_>
        <_>
          3 10 4 1 3.</_></rects>
      <tilted>0</tilted></_>
    <_>
      <rects>
        <_>
          3 9 12 4 -1.</_>
        <_>
          3 9 6 2 2.</_>
        <_>
          9 11 6 2 2.</_></rects>
      <tilted>0</tilted></_>
    <_>
      <rects>
        <_>
          3 9 12 3 -1.</_>
        <_>
          9 9 6 3 2.</_></rects>
      <tilted>0</tilted></_>
    <_>
      <rects>
        <_>
          3 11 2 4 -1.</_>
        <_>
          4 11 1 4 2.</_></rects>
      <tilted>0</tilted></_>
    <_>
      <rects>
        <_>
          3 11 2 9 -1.</_>
        <_>
          3 14 2 3 3.</_></rects>
      <tilted>0</tilted></_>
    <_>
      <rects>
        <_>
          3 11 12 18 -1.</_>
        <_>
          7 11 4 18 3.</_></rects>
      <tilted>0</tilted></_>
    <_>
      <rects>
        <_>
          3 12 6 6 -1.</_>
        <_>
          3 14 6 2 3.</_></rects>
      <tilted>0</tilted></_>
    <_>
      <rects>
        <_>
          3 14 9 3 -1.</_>
        <_>
          3 15 9 1 3.</_></rects>
      <tilted>0</tilted></_>
    <_>
      <rects>
        <_>
          3 16 5 3 -1.</_>
        <_>
          3 17 5 1 3.</_></rects>
      <tilted>0</tilted></_>
    <_>
      <rects>
        <_>
          3 17 9 7 -1.</_>
        <_>
          6 17 3 7 3.</_></rects>
      <tilted>0</tilted></_>
    <_>
      <rects>
        <_>
          3 18 12 7 -1.</_>
        <_>
          7 18 4 7 3.</_></rects>
      <tilted>0</tilted></_>
    <_>
      <rects>
        <_>
          3 20 3 2 -1.</_>
        <_>
          3 21 3 1 2.</_></rects>
      <tilted>0</tilted></_>
    <_>
      <rects>
        <_>
          3 20 4 9 -1.</_>
        <_>
          3 23 4 3 3.</_></rects>
      <tilted>0</tilted></_>
    <_>
      <rects>
        <_>
          3 21 3 9 -1.</_>
        <_>
          4 21 1 9 3.</_></rects>
      <tilted>0</tilted></_>
    <_>
      <rects>
        <_>
          3 24 10 4 -1.</_>
        <_>
          3 24 5 2 2.</_>
        <_>
          8 26 5 2 2.</_></rects>
      <tilted>0</tilted></_>
    <_>
      <rects>
        <_>
          3 29 4 3 -1.</_>
        <_>
          3 30 4 1 3.</_></rects>
      <tilted>0</tilted></_>
    <_>
      <rects>
        <_>
          4 0 4 10 -1.</_>
        <_>
          6 0 2 10 2.</_></rects>
      <tilted>0</tilted></_>
    <_>
      <rects>
        <_>
          4 2 2 18 -1.</_>
        <_>
          4 2 1 9 2.</_>
        <_>
          5 11 1 9 2.</_></rects>
      <tilted>0</tilted></_>
    <_>
      <rects>
        <_>
          4 3 4 20 -1.</_>
        <_>
          4 3 2 10 2.</_>
        <_>
          6 13 2 10 2.</_></rects>
      <tilted>0</tilted></_>
    <_>
      <rects>
        <_>
          4 4 4 8 -1.</_>
        <_>
          6 4 2 8 2.</_></rects>
      <tilted>0</tilted></_>
    <_>
      <rects>
        <_>
          4 4 3 6 -1.</_>
        <_>
          4 6 3 2 3.</_></rects>
      <tilted>0</tilted></_>
    <_>
      <rects>
        <_>
          4 4 3 9 -1.</_>
        <_>
          4 7 3 3 3.</_></rects>
      <tilted>0</tilted></_>
    <_>
      <rects>
        <_>
          4 6 12 13 -1.</_>
        <_>
          10 6 6 13 2.</_></rects>
      <tilted>0</tilted></_>
    <_>
      <rects>
        <_>
          4 7 3 3 -1.</_>
        <_>
          4 8 3 1 3.</_></rects>
      <tilted>0</tilted></_>
    <_>
      <rects>
        <_>
          4 8 2 3 -1.</_>
        <_>
          4 9 2 1 3.</_></rects>
      <tilted>0</tilted></_>
    <_>
      <rects>
        <_>
          4 8 9 12 -1.</_>
        <_>
          4 14 9 6 2.</_></rects>
      <tilted>0</tilted></_>
    <_>
      <rects>
        <_>
          4 9 6 12 -1.</_>
        <_>
          4 15 6 6 2.</_></rects>
      <tilted>0</tilted></_>
    <_>
      <rects>
        <_>
          4 9 12 8 -1.</_>
        <_>
          10 9 6 8 2.</_></rects>
      <tilted>0</tilted></_>
    <_>
      <rects>
        <_>
          4 10 6 6 -1.</_>
        <_>
          6 10 2 6 3.</_></rects>
      <tilted>0</tilted></_>
    <_>
      <rects>
        <_>
          4 10 12 5 -1.</_>
        <_>
          10 10 6 5 2.</_></rects>
      <tilted>0</tilted></_>
    <_>
      <rects>
        <_>
          4 11 10 16 -1.</_>
        <_>
          9 11 5 16 2.</_></rects>
      <tilted>0</tilted></_>
    <_>
      <rects>
        <_>
          4 12 10 7 -1.</_>
        <_>
          9 12 5 7 2.</_></rects>
      <tilted>0</tilted></_>
    <_>
      <rects>
        <_>
          4 13 2 4 -1.</_>
        <_>
          5 13 1 4 2.</_></rects>
      <tilted>0</tilted></_>
    <_>
      <rects>
        <_>
          4 15 6 2 -1.</_>
        <_>
          4 15 3 1 2.</_>
        <_>
          7 16 3 1 2.</_></rects>
      <tilted>0</tilted></_>
    <_>
      <rects>
        <_>
          4 15 4 3 -1.</_>
        <_>
          4 16 4 1 3.</_></rects>
      <tilted>0</tilted></_>
    <_>
      <rects>
        <_>
          4 15 8 14 -1.</_>
        <_>
          8 15 4 14 2.</_></rects>
      <tilted>0</tilted></_>
    <_>
      <rects>
        <_>
          4 18 3 8 -1.</_>
        <_>
          5 18 1 8 3.</_></rects>
      <tilted>0</tilted></_>
    <_>
      <rects>
        <_>
          4 21 6 6 -1.</_>
        <_>
          4 23 6 2 3.</_></rects>
      <tilted>0</tilted></_>
    <_>
      <rects>
        <_>
          4 22 12 10 -1.</_>
        <_>
          4 22 6 5 2.</_>
        <_>
          10 27 6 5 2.</_></rects>
      <tilted>0</tilted></_>
    <_>
      <rects>
        <_>
          4 24 2 5 -1.</_>
        <_>
          5 24 1 5 2.</_></rects>
      <tilted>0</tilted></_>
    <_>
      <rects>
        <_>
          4 24 10 4 -1.</_>
        <_>
          4 24 5 2 2.</_>
        <_>
          9 26 5 2 2.</_></rects>
      <tilted>0</tilted></_>
    <_>
      <rects>
        <_>
          4 28 5 3 -1.</_>
        <_>
          4 29 5 1 3.</_></rects>
      <tilted>0</tilted></_>
    <_>
      <rects>
        <_>
          5 0 2 22 -1.</_>
        <_>
          5 0 1 11 2.</_>
        <_>
          6 11 1 11 2.</_></rects>
      <tilted>0</tilted></_>
    <_>
      <rects>
        <_>
          5 1 1 3 -1.</_>
        <_>
          5 2 1 1 3.</_></rects>
      <tilted>0</tilted></_>
    <_>
      <rects>
        <_>
          5 1 9 10 -1.</_>
        <_>
          8 1 3 10 3.</_></rects>
      <tilted>0</tilted></_>
    <_>
      <rects>
        <_>
          5 2 2 6 -1.</_>
        <_>
          5 4 2 2 3.</_></rects>
      <tilted>0</tilted></_>
    <_>
      <rects>
        <_>
          5 3 4 10 -1.</_>
        <_>
          5 3 2 5 2.</_>
        <_>
          7 8 2 5 2.</_></rects>
      <tilted>0</tilted></_>
    <_>
      <rects>
        <_>
          5 4 1 24 -1.</_>
        <_>
          5 16 1 12 2.</_></rects>
      <tilted>0</tilted></_>
    <_>
      <rects>
        <_>
          5 5 2 10 -1.</_>
        <_>
          5 5 1 5 2.</_>
        <_>
          6 10 1 5 2.</_></rects>
      <tilted>0</tilted></_>
    <_>
      <rects>
        <_>
          5 5 9 7 -1.</_>
        <_>
          8 5 3 7 3.</_></rects>
      <tilted>0</tilted></_>
    <_>
      <rects>
        <_>
          5 6 9 7 -1.</_>
        <_>
          8 6 3 7 3.</_></rects>
      <tilted>0</tilted></_>
    <_>
      <rects>
        <_>
          5 9 2 22 -1.</_>
        <_>
          5 20 2 11 2.</_></rects>
      <tilted>0</tilted></_>
    <_>
      <rects>
        <_>
          5 11 2 3 -1.</_>
        <_>
          5 12 2 1 3.</_></rects>
      <tilted>0</tilted></_>
    <_>
      <rects>
        <_>
          5 11 10 8 -1.</_>
        <_>
          10 11 5 8 2.</_></rects>
      <tilted>0</tilted></_>
    <_>
      <rects>
        <_>
          5 12 3 9 -1.</_>
        <_>
          6 12 1 9 3.</_></rects>
      <tilted>0</tilted></_>
    <_>
      <rects>
        <_>
          5 13 2 2 -1.</_>
        <_>
          6 13 1 2 2.</_></rects>
      <tilted>0</tilted></_>
    <_>
      <rects>
        <_>
          5 14 6 4 -1.</_>
        <_>
          5 14 3 2 2.</_>
        <_>
          8 16 3 2 2.</_></rects>
      <tilted>0</tilted></_>
    <_>
      <rects>
        <_>
          5 16 2 2 -1.</_>
        <_>
          5 17 2 1 2.</_></rects>
      <tilted>0</tilted></_>
    <_>
      <rects>
        <_>
          5 18 3 6 -1.</_>
        <_>
          6 18 1 6 3.</_></rects>
      <tilted>0</tilted></_>
    <_>
      <rects>
        <_>
          5 19 4 9 -1.</_>
        <_>
          5 22 4 3 3.</_></rects>
      <tilted>0</tilted></_>
    <_>
      <rects>
        <_>
          5 21 6 6 -1.</_>
        <_>
          5 23 6 2 3.</_></rects>
      <tilted>0</tilted></_>
    <_>
      <rects>
        <_>
          5 24 8 8 -1.</_>
        <_>
          5 24 4 4 2.</_>
        <_>
          9 28 4 4 2.</_></rects>
      <tilted>0</tilted></_>
    <_>
      <rects>
        <_>
          6 3 7 14 -1.</_>
        <_>
          6 10 7 7 2.</_></rects>
      <tilted>0</tilted></_>
    <_>
      <rects>
        <_>
          6 7 1 22 -1.</_>
        <_>
          6 18 1 11 2.</_></rects>
      <tilted>0</tilted></_>
    <_>
      <rects>
        <_>
          6 8 6 6 -1.</_>
        <_>
          8 8 2 6 3.</_></rects>
      <tilted>0</tilted></_>
    <_>
      <rects>
        <_>
          6 10 6 4 -1.</_>
        <_>
          8 10 2 4 3.</_></rects>
      <tilted>0</tilted></_>
    <_>
      <rects>
        <_>
          6 11 1 3 -1.</_>
        <_>
          6 12 1 1 3.</_></rects>
      <tilted>0</tilted></_>
    <_>
      <rects>
        <_>
          6 12 6 4 -1.</_>
        <_>
          6 14 6 2 2.</_></rects>
      <tilted>0</tilted></_>
    <_>
      <rects>
        <_>
          6 12 9 10 -1.</_>
        <_>
          6 17 9 5 2.</_></rects>
      <tilted>0</tilted></_>
    <_>
      <rects>
        <_>
          6 13 10 2 -1.</_>
        <_>
          11 13 5 2 2.</_></rects>
      <tilted>0</tilted></_>
    <_>
      <rects>
        <_>
          6 14 4 2 -1.</_>
        <_>
          6 14 2 1 2.</_>
        <_>
          8 15 2 1 2.</_></rects>
      <tilted>0</tilted></_>
    <_>
      <rects>
        <_>
          6 16 8 12 -1.</_>
        <_>
          10 16 4 12 2.</_></rects>
      <tilted>0</tilted></_>
    <_>
      <rects>
        <_>
          6 17 3 7 -1.</_>
        <_>
          7 17 1 7 3.</_></rects>
      <tilted>0</tilted></_>
    <_>
      <rects>
        <_>
          6 20 10 4 -1.</_>
        <_>
          6 20 5 2 2.</_>
        <_>
          11 22 5 2 2.</_></rects>
      <tilted>0</tilted></_>
    <_>
      <rects>
        <_>
          6 21 2 6 -1.</_>
        <_>
          6 23 2 2 3.</_></rects>
      <tilted>0</tilted></_>
    <_>
      <rects>
        <_>
          6 22 10 4 -1.</_>
        <_>
          6 24 10 2 2.</_></rects>
      <tilted>0</tilted></_>
    <_>
      <rects>
        <_>
          6 25 10 6 -1.</_>
        <_>
          6 25 5 3 2.</_>
        <_>
          11 28 5 3 2.</_></rects>
      <tilted>0</tilted></_>
    <_>
      <rects>
        <_>
          6 30 6 1 -1.</_>
        <_>
          8 30 2 1 3.</_></rects>
      <tilted>0</tilted></_>
    <_>
      <rects>
        <_>
          7 0 6 22 -1.</_>
        <_>
          7 11 6 11 2.</_></rects>
      <tilted>0</tilted></_>
    <_>
      <rects>
        <_>
          7 1 4 24 -1.</_>
        <_>
          7 13 4 12 2.</_></rects>
      <tilted>0</tilted></_>
    <_>
      <rects>
        <_>
          7 6 7 16 -1.</_>
        <_>
          7 14 7 8 2.</_></rects>
      <tilted>0</tilted></_>
    <_>
      <rects>
        <_>
          7 11 3 1 -1.</_>
        <_>
          8 11 1 1 3.</_></rects>
      <tilted>0</tilted></_>
    <_>
      <rects>
        <_>
          7 11 3 4 -1.</_>
        <_>
          8 11 1 4 3.</_></rects>
      <tilted>0</tilted></_>
    <_>
      <rects>
        <_>
          7 13 6 8 -1.</_>
        <_>
          7 13 3 4 2.</_>
        <_>
          10 17 3 4 2.</_></rects>
      <tilted>0</tilted></_>
    <_>
      <rects>
        <_>
          7 14 2 2 -1.</_>
        <_>
          7 14 1 1 2.</_>
        <_>
          8 15 1 1 2.</_></rects>
      <tilted>0</tilted></_>
    <_>
      <rects>
        <_>
          7 18 3 2 -1.</_>
        <_>
          8 18 1 2 3.</_></rects>
      <tilted>0</tilted></_>
    <_>
      <rects>
        <_>
          7 19 2 2 -1.</_>
        <_>
          8 19 1 2 2.</_></rects>
      <tilted>0</tilted></_>
    <_>
      <rects>
        <_>
          7 19 3 2 -1.</_>
        <_>
          8 19 1 2 3.</_></rects>
      <tilted>0</tilted></_>
    <_>
      <rects>
        <_>
          7 19 4 2 -1.</_>
        <_>
          7 20 4 1 2.</_></rects>
      <tilted>0</tilted></_>
    <_>
      <rects>
        <_>
          7 20 2 1 -1.</_>
        <_>
          8 20 1 1 2.</_></rects>
      <tilted>0</tilted></_>
    <_>
      <rects>
        <_>
          7 21 1 9 -1.</_>
        <_>
          7 24 1 3 3.</_></rects>
      <tilted>0</tilted></_>
    <_>
      <rects>
        <_>
          7 21 6 4 -1.</_>
        <_>
          7 21 3 2 2.</_>
        <_>
          10 23 3 2 2.</_></rects>
      <tilted>0</tilted></_>
    <_>
      <rects>
        <_>
          8 0 4 30 -1.</_>
        <_>
          8 15 4 15 2.</_></rects>
      <tilted>0</tilted></_>
    <_>
      <rects>
        <_>
          8 2 3 28 -1.</_>
        <_>
          8 16 3 14 2.</_></rects>
      <tilted>0</tilted></_>
    <_>
      <rects>
        <_>
          8 3 8 16 -1.</_>
        <_>
          8 3 4 8 2.</_>
        <_>
          12 11 4 8 2.</_></rects>
      <tilted>0</tilted></_>
    <_>
      <rects>
        <_>
          8 4 3 22 -1.</_>
        <_>
          8 15 3 11 2.</_></rects>
      <tilted>0</tilted></_>
    <_>
      <rects>
        <_>
          8 12 3 3 -1.</_>
        <_>
          9 12 1 3 3.</_></rects>
      <tilted>0</tilted></_>
    <_>
      <rects>
        <_>
          8 15 6 2 -1.</_>
        <_>
          8 15 3 1 2.</_>
        <_>
          11 16 3 1 2.</_></rects>
      <tilted>0</tilted></_>
    <_>
      <rects>
        <_>
          8 18 3 8 -1.</_>
        <_>
          9 18 1 8 3.</_></rects>
      <tilted>0</tilted></_>
    <_>
      <rects>
        <_>
          8 18 7 3 -1.</_>
        <_>
          8 19 7 1 3.</_></rects>
      <tilted>0</tilted></_>
    <_>
      <rects>
        <_>
          8 21 2 10 -1.</_>
        <_>
          8 21 1 5 2.</_>
        <_>
          9 26 1 5 2.</_></rects>
      <tilted>0</tilted></_>
    <_>
      <rects>
        <_>
          8 22 5 10 -1.</_>
        <_>
          8 27 5 5 2.</_></rects>
      <tilted>0</tilted></_>
    <_>
      <rects>
        <_>
          9 0 2 28 -1.</_>
        <_>
          9 14 2 14 2.</_></rects>
      <tilted>0</tilted></_>
    <_>
      <rects>
        <_>
          9 3 6 3 -1.</_>
        <_>
          12 3 3 3 2.</_></rects>
      <tilted>0</tilted></_>
    <_>
      <rects>
        <_>
          9 3 6 6 -1.</_>
        <_>
          12 3 3 6 2.</_></rects>
      <tilted>0</tilted></_>
    <_>
      <rects>
        <_>
          9 5 6 22 -1.</_>
        <_>
          9 5 3 11 2.</_>
        <_>
          12 16 3 11 2.</_></rects>
      <tilted>0</tilted></_>
    <_>
      <rects>
        <_>
          9 6 2 18 -1.</_>
        <_>
          9 15 2 9 2.</_></rects>
      <tilted>0</tilted></_>
    <_>
      <rects>
        <_>
          9 7 6 14 -1.</_>
        <_>
          9 7 3 7 2.</_>
        <_>
          12 14 3 7 2.</_></rects>
      <tilted>0</tilted></_>
    <_>
      <rects>
        <_>
          9 7 6 20 -1.</_>
        <_>
          9 7 3 10 2.</_>
        <_>
          12 17 3 10 2.</_></rects>
      <tilted>0</tilted></_>
    <_>
      <rects>
        <_>
          9 9 1 9 -1.</_>
        <_>
          9 12 1 3 3.</_></rects>
      <tilted>0</tilted></_>
    <_>
      <rects>
        <_>
          9 9 4 5 -1.</_>
        <_>
          11 9 2 5 2.</_></rects>
      <tilted>0</tilted></_>
    <_>
      <rects>
        <_>
          9 9 2 10 -1.</_>
        <_>
          9 14 2 5 2.</_></rects>
      <tilted>0</tilted></_>
    <_>
      <rects>
        <_>
          9 10 3 2 -1.</_>
        <_>
          10 10 1 2 3.</_></rects>
      <tilted>0</tilted></_>
    <_>
      <rects>
        <_>
          9 11 2 5 -1.</_>
        <_>
          10 11 1 5 2.</_></rects>
      <tilted>0</tilted></_>
    <_>
      <rects>
        <_>
          9 12 3 2 -1.</_>
        <_>
          10 12 1 2 3.</_></rects>
      <tilted>0</tilted></_>
    <_>
      <rects>
        <_>
          9 13 2 2 -1.</_>
        <_>
          9 13 1 1 2.</_>
        <_>
          10 14 1 1 2.</_></rects>
      <tilted>0</tilted></_>
    <_>
      <rects>
        <_>
          9 13 1 4 -1.</_>
        <_>
          9 15 1 2 2.</_></rects>
      <tilted>0</tilted></_>
    <_>
      <rects>
        <_>
